tree
version=v4
num_class=1
num_tree_per_iteration=1
label_index=0
max_feature_idx=12
objective=regression
feature_names=acpl blunders mistakes inaccuracies avg_move_time time_trouble_moves opening_speed shift_move_time ply_count eval_volatility eco category is_white
feature_infos=[0:622.69444444444446] [0:23] [0:27] [0:18] [-244.78260869565219:344.23529411764707] [0:109] [-685:438] [-1089.8:1877] [5:517] [6.3674702774630205:841.84927161694816] -1:287:95:40:243:94:0:193:237:213:104:289:234:233:114:45:235:106:100:240:124:216:195:194:115:107:4:218:239:117:307:144:288:293:1:248:247:134:116:217:238:43:297:126:6:96:10:101:2:250:109:41:46:255:214:223:315:241:258:219:20:121:227:253:102:5:3:48:203:215:320:77:316:222:13:21:291:22:112:257:292:204:249:183:246:261:298:294:7:251:15:302:127:263:128:322:50:421:295:30:422:446:97:11:16:236:122:53:323:81:269:138:328:431:254:242:8:25:56:244:34:224:148:330:164:337:9:82:125:146:208:317:137:226:229:308:380:390:290:105:270:28:259:123:198:196:17:334:139:447:338:35:150:103:57:260:145:36:52:118:262:360:135:200:391:221:108:51:311:256:29:140:381:129:370:49:132:111:230:399:27:147:437:170:42:245:64:185:325:400:376:220:23:44:166:432:228:18:382:188:336:368:232:313:440:300:264:312:14:187:434:209:60:79:207:355:371:374:98:173:353:393:31:206:450:38:278:279:299:423:448:151:136:335:364:113:407:452:428:326:69:210:274:99:310:365:375:171:265:385:141:331:37:354:392 -1:0:2:1 -1:1:0
tree_sizes=3639 3614 3760 3643 3430 3467 4071 3517 3495 3385 3725 3755 3464 3501 3527 3898 3705 3568 3582 3496 3951 3815 3687 3631 3905 3862 4049 3917 3609 3802 4264 3752 4015 4236 3996 3950 4107 3783 4284 4058 4072 4109 4031 4339 4437 4431 4422 4356 4251 4110 4306 4189 4484 4275 4030 4174 4356 4116 4289 4171 4340 4362 4219 4265 4362 4569 4331 4208 4378 4099 3972 4285 4297 4385 4253 4349 4120 4176 4539 4290 4080 3990 3985 4192 4207 4137 3996 4184 3973 4149 4146 4066 4112 3768 4402 4040 3821 3741 3890 4166 3956 4033 4128 3772 3547 3493 3566 3484 3820 4327 3637 3768 3735 2840 3615 3979 3793 2854 3379 3012 3601 3280 3473 3119 3604 3942 4133 3561 3710 4464 3360 3325 2923 3121 3506 4108 3624 3602 3025 3232 3068 3328 3715 3346 3590 3485 3793 2954 3507 3382 2909 4212 3014 3946 3038 3270 3330 2763 3185 3186 3961 2758 4086 3362 4310 3458 3872 2896 2833 3474 3145 3375 3201 3810 3354 2779 3033 3498 3324 2911 3168 2883 3380 3906 3446 2960 2906 3029 3358 3293 3368 3079 2755 3015 3072 4164 3038 3716 3196 2865 2870 4033 3218 2801 3605 3769 4298 3022 2878 3419 4018 3674 4321 3083 4172 3032 2825 2977 3148 3529 3672 3028 3172 3845 3005 2950 2814 3058 4295 3206

Tree=0
num_leaves=31
num_cat=11
split_feature=0 10 6 6 6 0 10 10 9 10 10 10 0 10 10 9 10 9 8 0 9 8 8 8 9 6 10 0 10 8
split_gain=3.86294e+09 1.55449e+09 1.2824e+09 6.63708e+08 5.06636e+08 4.22689e+08 2.74869e+08 2.5177e+08 2.1636e+08 2.11034e+08 1.40897e+08 1.28601e+08 1.27164e+08 1.02601e+08 9.36026e+07 9.32664e+07 8.85609e+07 8.36044e+07 7.33874e+07 7.23878e+07 6.78993e+07 5.86367e+07 4.93782e+07 4.59948e+07 5.32551e+07 4.58599e+07 4.58465e+07 4.23234e+07 4.22568e+07 4.14802e+07
threshold=71.752049180327887 0 1.9000000000000001 1.6333333333333335 1.9000000000000001 111.25357142857143 1 2 282.26227059769923 3 4 5 45.563301282051292 6 7 316.78343381159203 8 332.75772751908602 94.500000000000014 118.46862745098041 315.73386451332857 49.500000000000007 60.500000000000007 56.500000000000007 293.70380985191946 1.1000000000000003 9 144.59687500000004 10 92.500000000000014
decision_type=2 9 2 2 2 2 9 9 2 9 9 9 2 9 9 2 9 2 2 2 2 2 2 2 2 2 9 2 9 2
left_child=1 4 9 10 20 7 17 15 21 19 -3 -12 23 25 -13 -4 27 22 -10 -2 -1 -6 -5 -8 -25 -11 -14 -7 -9 -22
right_child=2 3 5 6 8 16 12 28 18 13 11 14 26 -15 -16 -17 -18 -19 -20 -21 29 -23 -24 24 -26 -27 -28 -29 -30 -31
leaf_value=1500.2531419329846 1480.2715486426325 1503.6200361595891 1467.4964632833555 1487.2783590770118 1477.7832766125546 1449.2909607961451 1504.1267215068067 1471.3483372542892 1466.022842414792 1493.7807767234215 1509.2543497109771 1515.2090777873991 1490.5655319279279 1501.0084605491081 1529.8593092868339 1455.0632697330218 1460.8520198039728 1478.3359327119904 1481.9544948187668 1462.1314257550298 1483.8491602364147 1490.1354118922018 1499.4879076319014 1522.2936968676363 1505.6767593805901 1480.053349109648 1502.504773089687 1438.1711241537755 1482.7259377762848 1500.405111515216
leaf_weight=13852 10303 7145 11405 7172 6533 8158 5635 5584 14857 4325 8602 7387 5722 8560 11444 12810 4621 5578 3590 2797 5437 9334 6155 4997 3141 5565 7407 5897 7890 2097
leaf_count=13852 10303 7145 11405 7172 6533 8158 5635 5584 14857 4325 8602 7387 5722 8560 11444 12810 4621 5578 3590 2797 5437 9334 6155 4997 3141 5565 7407 5897 7890 2097
internal_value=1486.3 1496.86 1469.96 1505.75 1484.02 1460.93 1497.86 1467.02 1476.49 1486.11 1516.21 1519.48 1504.35 1493 1524.13 1460.93 1448.63 1488.61 1469.12 1476.41 1496.1 1485.05 1492.92 1511.07 1515.88 1486.06 1497.32 1444.66 1478 1488.46
internal_weight=224000 136085 87915 80385 55700 56365 45807 37689 34314 31550 34578 27433 26902 18450 18831 24215 18676 18905 18447 13100 21386 15867 13327 13773 8138 9890 13129 14055 13474 7534
internal_count=224000 136085 87915 80385 55700 56365 45807 37689 34314 31550 34578 27433 26902 18450 18831 24215 18676 18905 18447 13100 21386 15867 13327 13773 8138 9890 13129 14055 13474 7534
cat_boundaries=0 10 23 33 43 57 71 85 98 108 120 130
cat_threshold=65 0 3221225472 1 0 0 1872756738 1695526400 2147483684 17301504 36701212 768 0 262480 0 0 2151677960 2160082956 130 5242986 0 0 8388608 17 256 3221225472 134217985 0 0 262144002 621788672 2147483680 1048578 33554625 0 1073741824 257 0 0 60817408 1695526400 2147483876 1572864 12582920 268436224 0 320 2048 0 4194304 2295337308 642 9437256 0 0 0 1073741824 305136644 2097216 8192 268697648 4194304 0 2147483656 2113568 8 167772215 16424 0 0 65600 1048604 8964 2147745792 262224 0 0 3426746370 2189430796 8194 114 0 0 0 32 134348946 794624 262144 527872 70656 0 268435460 33554433 8512 2176 163840 327688 33280 241 8448 3221233664 1 0 0 257949698 84651520 2147483680 3 1077936162 75780 8192 436276384 4718592 0 0 4160 16464 142606993 8 65536 1074790630 74240 0 33817168 0 0 2048 3229630464 132 8913145
is_linear=0
shrinkage=1


Tree=1
num_leaves=31
num_cat=10
split_feature=0 6 10 6 6 0 10 10 10 9 0 9 10 9 10 8 10 0 0 8 6 9 10 9 8 6 8 10 10 5
split_gain=3.15735e+09 1.18066e+09 1.17615e+09 4.90632e+08 3.84477e+08 3.75922e+08 2.24035e+08 2.09699e+08 2.09316e+08 1.66526e+08 1.19138e+08 9.966e+07 9.00795e+07 7.91821e+07 7.46849e+07 7.26987e+07 7.23591e+07 7.23485e+07 6.60805e+07 6.35139e+07 5.94799e+07 5.80241e+07 4.94803e+07 4.82452e+07 4.71887e+07 4.40025e+07 4.13439e+07 4.12633e+07 4.08676e+07 4.08499e+07
threshold=67.479583333333352 2.1000000000000005 0 1.4500000000000002 1.9000000000000001 109.10435571687842 1 2 3 282.26227059769923 93.561250000000015 275.98939412754322 4 359.23306480493301 5 64.500000000000014 6 121.24231127679406 38.572948328267479 94.500000000000014 1.1000000000000003 324.30016461358548 7 335.00810966529912 43.500000000000007 1.2250000000000003 60.500000000000007 8 9 1.5000000000000002
decision_type=2 2 9 2 2 2 9 9 9 2 2 2 9 2 9 2 9 2 2 2 2 2 9 2 2 2 2 9 9 2
left_child=2 6 4 12 20 8 17 21 13 24 16 15 -4 -3 -7 -9 -8 25 -14 -11 -1 26 -13 -10 -6 -2 -5 -24 -12 -20
right_child=1 5 3 7 9 14 10 11 23 19 28 22 18 -15 -16 -17 -18 -19 29 -21 -22 -23 27 -25 -26 -27 -28 -29 -30 -31
leaf_value=15.963044289488614 -0.38522040602233343 -18.440248973821692 51.586622651098054 2.3124814437032581 -8.9041493899019653 -38.126739695977136 3.5052707208617768 17.501881311739606 -3.4371113905365878 -17.954435356285153 -9.2039840630038618 3.0450342911479429 34.342225458144604 -30.32846870950511 -24.005792036195501 31.034437332839044 17.055475113382251 -24.227744334713023 21.444772012243966 -2.608476380487406 5.0333141481803585 -4.6223495980003655 8.3330247219679094 -15.114635474003245 3.4226504635874906 -12.171130644942844 14.076328111386784 23.865659147971868 4.1136210337735317 34.902986201281323
leaf_weight=8827 6125 15944 1744 6433 4407 13313 7296 10213 9710 13103 5251 4899 9827 8638 5428 6494 8607 2805 12644 3396 11422 5505 3419 5566 10516 6561 5578 3490 4094 2745
leaf_count=8827 6125 15944 1744 6433 4407 13313 7296 10213 9710 13103 5251 4899 9827 8638 5428 6494 8607 2805 12644 3396 11422 5505 3419 5566 10516 6561 5578 3490 4094 2745
internal_value=0.000463907 -13.2994 10.5986 18.7697 -0.947486 -22.3894 -0.224267 12.4978 -16.8973 -7.8723 5.58384 17.7857 29.4852 -22.6085 -34.07 22.762 10.8518 -9.68796 27.9251 -14.7958 9.79783 3.87698 10.7598 -7.68693 -0.21765 -6.48071 7.7757 16.2023 -3.37505 23.8454
internal_weight=224000 99338 124662 72991 51671 58599 40739 46031 39858 31422 25248 28515 26960 24582 18741 16707 15903 15491 25216 16499 20249 17516 11808 15276 14923 12686 12011 6909 9345 15389
internal_count=224000 99338 124662 72991 51671 58599 40739 46031 39858 31422 25248 28515 26960 24582 18741 16707 15903 15491 25216 16499 20249 17516 11808 15276 14923 12686 12011 6909 9345 15389
cat_boundaries=0 10 20 33 43 58 68 82 92 106 120
cat_threshold=1 256 3221225472 1 0 0 1872756736 3843010048 2147483684 17301504 193 0 1073741824 1 0 0 60817408 1695530500 2147483884 9437184 33555544 512 0 262480 0 0 2151677962 12603404 16514 5243114 0 0 8388608 17 256 3221225472 134217729 0 0 262144002 621784576 2147483680 9437186 49184 50462720 0 2688548866 525072 8388608 4432 0 4194304 0 320 562036740 65536 128 16 241 8448 3221233664 1 0 0 257949698 84647424 2147483680 2 34603024 780 2147483648 268436800 0 0 1816133634 2182103048 24578 524318 0 0 0 64 1081081892 2367496 8192 471925920 1574912 0 0 168820736 88 134218257 642 83972 0 1107831296 66560 0 2052 2097232 513 0 16384 69632 0 1073774688 34604092 90880 2147483648 368 0 0 201326594 2155872257 0 134742066 0 0 0 32
is_linear=0
shrinkage=0.1


Tree=2
num_leaves=31
num_cat=12
split_feature=0 10 6 6 6 0 0 10 0 9 10 10 10 6 10 10 10 6 9 9 8 10 0 10 10 10 9 8 4 9
split_gain=2.58936e+09 1.12726e+09 7.30492e+08 5.01955e+08 3.81962e+08 1.93871e+08 1.93024e+08 1.59475e+08 1.47111e+08 1.37189e+08 1.34662e+08 1.19362e+08 1.08057e+08 9.75231e+07 8.53646e+07 8.25363e+07 7.05901e+07 6.97899e+07 5.6268e+07 5.22813e+07 4.24871e+07 4.11285e+07 4.02179e+07 3.78911e+07 3.65249e+07 3.63593e+07 3.44948e+07 3.65359e+07 3.43304e+07 3.36555e+07
threshold=76.680909090909111 0 2.2250000000000005 1.9000000000000001 2.4500000000000006 46.189422180801493 126.2526595744681 1 121.24231127679406 280.19830113257541 2 3 4 1.2250000000000003 5 6 7 1.1000000000000003 332.75772751908602 300.86015481643597 94.500000000000014 8 48.108401880141017 9 10 11 250.38797106417829 63.500000000000007 12.669398907103828 300.86015481643597
decision_type=2 9 2 2 2 2 2 9 2 2 9 9 9 2 9 9 9 2 2 2 2 9 2 9 9 9 2 2 2 2
left_child=1 4 8 7 13 16 10 -3 12 22 18 -9 -2 23 -13 29 -5 -14 -4 -15 28 -19 -6 -1 -17 -16 27 -18 -11 -7
right_child=2 3 6 5 9 15 -8 11 -10 20 -12 14 17 19 25 24 26 21 -20 -21 -22 -23 -24 -25 -26 -27 -28 -29 -30 -31
leaf_value=16.573154461003949 -9.1508042838865737 12.983416395736567 -19.273671830403543 6.3491347261420037 2.6350934194236095 0.38276070275544749 -34.939258985235817 18.750659195567842 -17.252874467639774 -21.507661746739196 -10.475378409922069 23.394884833761168 12.396779339607809 4.9849298707952752 28.413667614021655 1.2853827250059446 18.091385152563685 -6.0440439343502597 -29.570941083587918 -5.9975136159965823 -5.9731218812433973 6.3517003402841175 -8.4349646829394569 5.8728115796052149 11.667321791601527 41.243251691350743 13.362015750343568 32.344799227057706 -9.5592445975370062 -10.983700783229599
leaf_weight=7141 9428 11616 11002 6613 6521 5436 11047 11507 6555 10917 10784 7478 6444 10140 3417 6442 4808 6231 10251 7571 3121 4677 6607 6232 7165 7764 6126 2873 3084 5002
leaf_count=7141 9428 11616 11002 6613 6521 5436 11047 11507 6555 10917 10784 7478 6444 10140 3417 6442 4808 6231 10251 7571 3121 4677 6607 6232 7165 7764 6126 2873 3084 5002
internal_value=0.000596824 7.73733 -14.9406 15.1065 -2.62708 7.71309 -23.5407 22.9782 -3.82551 -10.6271 -19.6102 26.8137 -0.538869 5.1574 31.7735 1.62805 14.8784 4.14321 -24.229 0.290216 -16.5239 -0.728865 -2.93619 11.6034 6.75672 37.3513 18.9452 23.4227 -18.8758 -5.05932
internal_weight=224000 147581 76419 86247 61334 44465 43084 41782 33335 30250 32037 30166 26780 31084 18659 24045 20420 17352 21253 17711 17122 10908 13128 13373 13607 11181 13807 7681 14001 10438
internal_count=224000 147581 76419 86247 61334 44465 43084 41782 33335 30250 32037 30166 26780 31084 18659 24045 20420 17352 21253 17711 17122 10908 13128 13373 13607 11181 13807 7681 14001 10438
cat_boundaries=0 10 24 34 48 58 71 81 92 106 116 128 142
cat_threshold=65 0 3221225472 1 0 0 1872756738 1695526400 2147483684 17301504 8388616 268436224 0 262464 2048 0 4194304 2297434204 642 9437258 16416 0 0 1073741824 33 768 3221225472 134218497 0 0 262144002 621784576 2147483680 2 40895494 2097152 8192 268436528 4259840 0 2147483660 16672 72 134217909 8 0 0 65600 34603137 4 0 0 0 0 262144000 1695530496 2147483876 1572864 1342177424 862280 262144 1107888128 5121 0 268500992 33554432 24576 33556992 32768 262144 8421376 1048604 66304 0 134545744 524288 0 4194304 2160082956 16514 9437419 44041232 768 32769 328448 4196352 0 0 2297446416 10 107 16384 124 262912 3221487616 262513 0 0 1073741834 2155888648 2 90 0 0 0 32 65 0 3221225472 1 0 0 100663298 16779264 4 524288 1080034338 8196 8192 302001824 65536 0 2147485704 4160 80 138412048 8 268500992 131584 20484 131072 203424256 1048640 268445712 32768 0 1 268455936 132096 589832 512 36896
is_linear=0
shrinkage=0.1


Tree=3
num_leaves=31
num_cat=11
split_feature=0 6 10 0 6 6 10 10 10 10 9 0 10 9 9 10 0 10 10 9 0 10 8 9 8 8 8 6 11 8
split_gain=2.14522e+09 8.78299e+08 7.12336e+08 3.51407e+08 3.37246e+08 2.13394e+08 1.81443e+08 1.6659e+08 1.34706e+08 1.00285e+08 8.20571e+07 7.68776e+07 7.10346e+07 6.72973e+07 5.60761e+07 5.46004e+07 4.83874e+07 4.82002e+07 4.6105e+07 4.42649e+07 4.30928e+07 4.11444e+07 3.89954e+07 4.14645e+07 3.74501e+07 3.74437e+07 3.72445e+07 3.49909e+07 3.49021e+07 3.45542e+07
threshold=63.65275362318841 1.6333333333333335 0 98.188577586206904 1.2250000000000003 2.4500000000000006 1 2 3 4 253.78645972278983 35.131827209533277 5 315.73386451332857 244.92595400597978 6 138.77097902097907 7 8 373.99911277287435 102.05131578947369 9 94.500000000000014 309.38220430651955 95.500000000000014 49.500000000000007 56.500000000000007 0.90000000000000013 10 49.500000000000007
decision_type=2 2 9 2 2 2 9 9 9 9 2 2 9 2 2 9 2 9 9 2 2 9 2 2 2 2 2 2 1 2
left_child=2 8 5 6 17 15 13 14 20 16 29 26 -10 -3 25 27 -5 -4 -14 -8 -2 -13 23 -19 -16 -6 -9 -1 -12 -7
right_child=1 3 4 9 7 10 19 11 12 -11 28 21 18 -15 24 -17 -18 22 -20 -21 -22 -23 -24 -25 -26 -27 -28 -29 -30 -31
leaf_value=18.74206923038977 -1.3966885680505916 -10.851692124139667 44.584959413689681 -25.35112170856528 2.793419013594749 -6.4079575670372044 -0.6670285982121924 17.128787938390115 1.8378453738511131 -16.498521442987947 8.1448182869935124 30.970406072162707 6.3076757484242716 -20.91629205571855 -2.7784175992852713 0.12999939628045112 -35.945993340084925 26.198327491511574 18.962512773754657 -12.460649634399745 -14.027118865841363 11.266307258486489 35.051694256436363 14.052430327267359 10.846599666275255 16.278354600532595 29.311709867052059 7.4379062585980256 -13.166596750890058 6.6728204412847738
leaf_weight=3593 9166 13005 1448 12495 3465 3685 14925 4782 10830 9857 817 1132 5407 13582 9289 8585 6581 11816 6233 4045 3830 16437 3459 3688 2577 5075 5280 11511 12937 4468
leaf_count=3593 9166 13005 1448 12495 3465 3685 14925 4782 10830 9857 817 1132 5407 13582 9289 8585 6581 11816 6233 4045 3830 16437 3459 3688 2577 5075 5280 11511 12937 4468
internal_value=0.00119434 -9.96522 9.61036 -16.1321 16.0596 -0.0746781 -10.6585 11.4865 2.98731 -24.7508 -7.18862 16.5457 7.67233 -15.9872 4.62553 6.50409 -28.991 26.8303 13.0946 -3.18012 -5.11502 12.5599 25.4377 23.3091 0.180597 10.807 23.5217 10.1203 -11.9007 0.760559
internal_weight=224000 109956 114044 74490 68448 45596 45557 48037 35466 28933 21907 27631 22470 26587 20406 23689 19076 20411 11640 18970 12996 17569 18963 15504 11866 8540 10062 15104 13754 8153
internal_count=224000 109956 114044 74490 68448 45596 45557 48037 35466 28933 21907 27631 22470 26587 20406 23689 19076 20411 11640 18970 12996 17569 18963 15504 11866 8540 10062 15104 13754 8153
cat_boundaries=0 10 20 33 43 53 63 73 87 101 115 116
cat_threshold=1 256 2147483648 0 0 0 1872756738 3843010048 2147483684 17301568 1048657 768 3221225472 1 0 0 127926274 605007360 2147483680 1572936 1116 512 1073741824 263537 4196352 0 4194312 12582924 16514 5242923 0 0 8388608 34603009 0 0 256 0 0 195035136 1695530496 2147483876 9437186 1273 256 3221225472 1 0 0 253755394 1091280384 2147483680 9437186 2097364 772 3221233664 268435553 0 0 1145044994 2327855116 8194 524308 1 256 2147483648 0 0 0 1174405122 2701133824 2147483652 17301568 49184 50462720 0 2688548994 787200 8388608 4432 0 4210688 0 320 830472196 65536 128 4197386 288776 131072 201589776 4194304 33554496 2147483656 1048592 16384 134217833 8 0 0 1073741888 2147746048 51381248 0 536903680 393360 41944064 131408 0 0 0 262400 1627652352 65728 2097152 2
is_linear=0
shrinkage=0.1


Tree=4
num_leaves=31
num_cat=8
split_feature=0 10 6 6 6 0 9 10 6 10 9 0 8 0 8 0 0 9 9 8 9 10 10 8 10 9 10 9 8 10
split_gain=1.73859e+09 8.2345e+08 4.30741e+08 3.68898e+08 3.05849e+08 1.84192e+08 1.42788e+08 1.09084e+08 1.02497e+08 8.55655e+07 7.09062e+07 6.28633e+07 5.93517e+07 5.90784e+07 5.63205e+07 5.53644e+07 5.11596e+07 5.06338e+07 4.89558e+07 4.83699e+07 4.26749e+07 4.04159e+07 4.02934e+07 3.84875e+07 3.60278e+07 3.56275e+07 3.54973e+07 3.52048e+07 3.2085e+07 3.02116e+07
threshold=80.783196239717995 0 2.4500000000000006 1.4500000000000002 1.6333333333333335 45.563301282051292 280.19830113257541 1 1.2250000000000003 2 332.75772751908602 46.189422180801493 99.500000000000014 126.2526595744681 64.500000000000014 126.2526595744681 49.023532668881515 282.26227059769923 316.78343381159203 59.500000000000007 252.68299889794102 3 4 43.500000000000007 5 368.89754705559477 6 360.35307768251982 94.500000000000014 7
decision_type=2 9 2 2 2 2 2 9 2 9 2 2 2 2 2 2 2 2 2 2 2 9 9 2 9 2 9 2 2 9
left_child=1 4 8 9 17 14 16 13 21 -3 19 -11 22 27 20 26 23 -1 -16 -7 -5 -2 -8 -6 -12 -24 -10 -4 -19 -21
right_child=2 3 7 5 6 10 12 -9 15 11 24 -13 -14 -15 18 -17 -18 28 -20 29 -22 -23 25 -25 -26 -27 -28 -29 -30 -31
leaf_value=11.451119100795744 -5.8412148931781545 11.742473179574404 -17.670145279872152 13.264973788013737 -4.9609926641078967 0.88618360074711211 -22.94571334012198 -12.364513379495961 -12.380554034670279 28.969078701262987 -10.510327627757503 18.771479792228654 -0.92934727369190007 -31.537302793561857 23.899052096682293 -20.419758734541929 -5.9385970086462079 -0.87684892212848053 10.331862314579007 3.458437458413 0.91076347242374922 5.8735871845320666 -8.5669987178082021 8.5760578662373259 1.2273197085912826 -18.079427452811913 -2.4063414696080501 -26.955224216250954 12.221309690580121 14.430280845353185
leaf_weight=11814 4444 8220 10877 8613 3092 11049 4417 10775 6435 11505 5083 12738 3848 8000 7243 3798 10148 8509 4203 4048 4140 8687 10395 6548 5377 6338 8031 6538 2397 6690
leaf_count=11814 4444 8220 10877 8613 3092 11049 4417 10775 6435 11505 5083 12738 3848 8000 7243 3798 10148 8509 4203 4048 4140 8687 10395 6548 5377 6338 8031 6538 2397 6690
internal_value=0.0015105 5.7926 -13.4011 12.1142 -2.53465 7.2306 -7.32922 -20.8367 -4.82977 20.6093 2.28211 23.6012 -12.3529 -24.4142 13.8248 -9.67457 -0.98283 6.91536 18.9171 5.53122 9.25443 1.9089 -14.4313 4.23409 -4.48542 -12.1628 -6.85345 -21.156 2.00196 10.3108
internal_weight=224000 156415 67585 88909 67506 56446 44786 36190 31395 32463 32247 24243 24998 25415 24199 18264 19788 22720 11446 21787 12753 13131 21150 9640 10460 16733 14466 17415 10906 10738
internal_count=224000 156415 67585 88909 67506 56446 44786 36190 31395 32463 32247 24243 24998 25415 24199 18264 19788 22720 11446 21787 12753 13131 21150 9640 10460 16733 14466 17415 10906 10738
cat_boundaries=0 10 20 30 40 48 60 74 88
cat_threshold=65 256 3221225472 1 0 0 799014912 1695526400 2147483812 524288 49 8960 3221233664 257 0 0 85983234 84917760 2147483680 8388618 12582920 512 0 320 2048 0 1077936130 2295353468 10 26214522 34603205 512 0 268435520 0 0 60817408 621525505 2147483684 1572900 0 0 0 1 0 0 18874368 360960 1076888756 10752 8192 69534048 0 0 4259842 2155892736 0 135266498 0 268435456 1048729 0 0 321 0 0 94371842 621784576 2147483872 64 0 0 0 32 34603008 4 0 402917200 1572864 0 3225419782 2151677960 8192 17825890 40 0 0 2147483648
is_linear=0
shrinkage=0.1


Tree=5
num_leaves=31
num_cat=10
split_feature=0 6 10 0 0 6 6 6 10 10 5 9 9 9 10 9 0 8 8 8 10 5 8 10 10 6 8 11 10 10
split_gain=1.45167e+09 7.10601e+08 4.03085e+08 2.08935e+08 1.93079e+08 1.93013e+08 1.42148e+08 1.25601e+08 1.23018e+08 8.05982e+07 7.02173e+07 6.53717e+07 6.28207e+07 5.67123e+07 5.16707e+07 4.91578e+07 4.58539e+07 4.23931e+07 4.16518e+07 4.01995e+07 3.97353e+07 3.9081e+07 3.78869e+07 3.76494e+07 3.51905e+07 3.29607e+07 3.29127e+07 3.07455e+07 3.03016e+07 2.96171e+07
threshold=57.251760563380287 2.4500000000000006 0 98.188577586206904 101.23904761904764 2.2250000000000005 1.1000000000000003 1.4500000000000002 1 2 7.5000000000000009 228.44196024407208 247.08398717422932 300.86015481643597 3 295.78620499616903 151.22902097902099 64.500000000000014 95.500000000000014 95.500000000000014 4 3.5000000000000004 55.500000000000007 5 6 0.90000000000000013 50.500000000000007 7 8 9
decision_type=2 2 9 2 2 2 2 2 9 9 2 2 2 2 9 2 2 2 2 2 9 2 2 9 9 2 2 1 9 9
left_child=2 4 7 8 6 10 20 -1 15 -8 11 26 22 17 -5 -3 -6 -7 29 -15 -2 28 -9 -10 -22 -13 -4 -17 -11 -14
right_child=1 3 5 14 16 13 9 12 23 21 -12 25 18 19 -16 27 -18 -19 -20 -21 24 -23 -24 -25 -26 -27 -28 -29 -30 -31
leaf_value=10.225933976567424 -0.11220112384833779 -9.3031306127604374 17.825633606778506 -25.902876546075159 -6.950012981838225 7.4583243806647816 -6.389066432125194 -1.4166929139638074 -8.8341147405016045 -2.6449543991387974 34.343618784726822 21.608804721526162 -18.468388708669803 -3.3045440035028442 -15.930856781997916 1.3416505318283218 -21.634087027457369 18.06522475840924 4.3266144883131226 11.933239814745571 7.5537473465508587 15.050444748908303 10.317271061703316 0.37515820662307148 17.562629587058431 11.121480653044735 27.910881570710536 -19.743802099539018 5.9268504586832256 -6.1135466963273757
leaf_weight=12057 2771 9292 5654 14051 12585 9645 13298 6130 8323 7708 3086 4116 2347 5677 8483 729 2559 6184 3257 2491 6528 2635 4993 9507 7741 11022 7566 13457 8851 11257
leaf_count=12057 2771 9292 5654 14051 12585 9645 13298 6130 8323 7708 3086 4116 2347 5677 8483 729 2559 6184 3257 2491 6528 2635 4993 9507 7741 11022 7566 13457 8851 11257
internal_value=0.00122675 -6.93765 9.3409 -14.4219 0.450106 14.8615 3.47126 1.69295 -10.1967 -0.408215 20.0187 18.4598 -1.98291 8.11004 -22.1674 -14.9506 -9.4313 11.6022 -5.83118 1.34253 10.8687 3.73682 3.85056 -3.92625 12.9921 13.973 23.5976 -18.6602 1.93877 -8.26311
internal_weight=224000 128518 95482 63842 64676 55441 49532 40041 41308 32492 31444 28358 27984 23997 22534 23478 15144 15829 16861 8168 17040 19194 11123 17830 14269 15138 13220 14186 16559 13604
internal_count=224000 128518 95482 63842 64676 55441 49532 40041 41308 32492 31444 28358 27984 23997 22534 23478 15144 15829 16861 8168 17040 19194 11123 17830 14269 15138 13220 14186 16559 13604
cat_boundaries=0 10 20 30 40 50 60 74 75 85 93
cat_threshold=1 256 2147483648 256 0 0 799014914 3843010056 2147483686 524288 113 256 3221225472 1 0 0 262144000 68136448 2147492000 9437250 17 264 0 256 4194304 0 94371840 1695530496 2147483892 17301504 268436605 768 3221233664 257 0 0 224395266 17013248 2147483680 2 4194304 4 0 64 0 0 1759510528 1700767240 24736 4 1076887690 8704 32768 168100624 524288 0 4196354 2843742208 0 524473 33554633 768 2147614720 268435712 6144 0 50331650 2290110464 2147483654 135790618 0 0 0 1073741888 2 3146948 66052 3221225472 1137 0 0 33554434 2194669580 16386 135266378 0 0 0 0 0 0 18874368 98816
is_linear=0
shrinkage=0.1


Tree=6
num_leaves=31
num_cat=16
split_feature=0 6 10 0 6 10 6 10 10 10 10 10 9 10 10 9 0 10 9 10 10 8 9 4 10 10 9 10 8 10
split_gain=1.18214e+09 4.87302e+08 3.88467e+08 2.13399e+08 2.00763e+08 1.22032e+08 1.1892e+08 8.193e+07 7.81035e+07 7.18053e+07 6.71462e+07 5.83275e+07 5.52532e+07 5.14572e+07 4.68169e+07 4.51861e+07 4.13476e+07 4.11993e+07 4.00444e+07 3.89381e+07 3.71655e+07 3.3619e+07 2.9397e+07 2.91586e+07 2.75741e+07 2.66658e+07 2.59969e+07 2.56193e+07 2.51891e+07 2.46238e+07
threshold=63.65275362318841 1.4500000000000002 0 107.21132376395536 2.2250000000000005 1 2.9000000000000004 2 3 4 5 6 366.30825289775606 7 8 332.75772751908602 31.063508064516139 9 332.75772751908602 10 11 94.500000000000014 280.19830113257541 12.154700854700856 12 13 329.66077635745046 14 88.500000000000014 15
decision_type=2 2 9 2 2 9 2 9 9 9 9 9 2 9 9 2 2 9 2 9 9 2 2 2 9 9 2 9 2 9
left_child=2 10 6 5 7 18 15 -4 -9 22 -2 -10 19 26 -12 21 -8 -11 -3 -7 -19 -1 -6 -18 -16 -13 -5 -15 -17 -21
right_child=1 3 4 13 9 12 16 8 11 17 14 25 -14 27 24 28 23 20 -20 29 -22 -23 -24 -25 -26 -27 -28 -29 -30 -31
leaf_value=5.416477705097118 -3.3090846700529384 -9.6484593668419905 9.4626486833409977 -18.246315283306402 4.2128521981390845 -5.5135934338908905 2.606383926836215 12.501537339158292 16.135637984290138 3.6620509471985372 2.3188419085189196 20.73751039732759 -11.236829393783676 -17.526113418376895 5.8945957089402405 -6.9660600511706692 -11.815870213677151 7.0803548443634998 -17.577490578708233 18.135737127254284 18.740050274577833 19.791595312653161 -5.771165057161479 -1.9921924527169717 16.889934685348447 31.659739525626449 -27.113869773275152 -6.6767743565364661 5.358645129760796 1.3058294147253191
leaf_weight=16162 9759 14163 12127 5615 6235 11615 4000 10562 6816 7361 10826 3525 7656 6615 4152 4594 10123 5149 11575 938 5925 1809 5596 4307 5154 7158 8040 3305 2595 10543
leaf_count=16162 9759 14163 12127 5615 6235 11615 4000 10562 6816 7361 10826 3525 7656 6615 4152 4594 10123 5149 11575 938 5925 1809 5596 4307 5154 7158 8040 3305 2595 10543
internal_value=0.00086756 -7.39752 7.13405 -11.4651 11.7239 -8.12997 -0.287137 16.3581 19.3279 5.57439 3.49782 23.4386 -3.87334 -19.4567 6.79575 4.18314 -6.38996 9.47372 -13.2092 -1.43412 13.33 6.86351 -0.509104 -8.88374 11.9958 28.0786 -23.4503 -13.9219 -2.51723 2.69542
internal_weight=224000 109956 114044 80065 70454 56490 43590 40188 28061 30266 29891 17499 30752 23575 20132 25160 18430 18435 25738 23096 11074 17971 11831 14430 9306 10683 13655 9920 7189 11481
internal_count=224000 109956 114044 80065 70454 56490 43590 40188 28061 30266 29891 17499 30752 23575 20132 25160 18430 18435 25738 23096 11074 17971 11831 14430 9306 10683 13655 9920 7189 11481
cat_boundaries=0 10 20 34 47 61 71 85 95 105 118 132 147 161 175 185 199
cat_threshold=1 0 1073741824 256 0 0 1872756738 3843010048 2147483684 17301568 1048657 512 2147483648 134217985 0 0 127926272 605003264 2147483808 9961536 76 768 2147483648 268697664 2048 0 4194312 149950540 640 1048632 16384 0 0 1073741888 49415170 270532608 8192 3120 65536 0 2147483652 16432 10 176160775 0 0 32768 34604120 2097920 2147483648 168108545 0 0 0 139476992 16770 4194859 0 0 0 1073741824 34603141 0 0 0 0 0 144703488 1695530500 2147483812 9437206 656 337992 262144 1177092096 4199425 16 0 33554433 64 640 32808 0 8388608 65536 1342177529 8448 3221225472 33 0 0 220200960 17275392 2147491874 3 1098 768 3221233664 268435825 4194304 0 121634818 2285912088 16386 524296 2097284 2048 8192 335545456 67584 0 2147485708 8388636 8 135282816 16392 8 8388864 270532612 65792 1073741824 33817152 524288 0 402655242 3250593792 8214 46 8 0 0 32 1078003746 270340 32768 1076365312 4718656 16 4472832 0 8769 16 0 65536 0 32928 16 6357008 286732 262144 265216 2048 64 3221291016 42991680 8192 939524193 0 0 0 96 1342177280 540676 131072 134226432 9437248 268443648 65536 256 24832 805323776 1029 593920 768 32 3146758 16896 8192 264464 0 0 46137346 1686643716 20 9961640 142615296 34603024 0 2756706304 131202 8388672 336 81 0 0 32772 1610874888 0 2149580800
is_linear=0
shrinkage=0.1


Tree=7
num_leaves=31
num_cat=10
split_feature=0 6 10 10 6 10 10 9 0 10 0 6 0 9 6 10 10 8 9 8 8 5 9 10 6 10 8 8 11 0
split_gain=9.83642e+08 5.12886e+08 2.36736e+08 2.01753e+08 1.90511e+08 1.3239e+08 8.9628e+07 8.90382e+07 8.59188e+07 6.33928e+07 5.98758e+07 4.89978e+07 4.78153e+07 4.40066e+07 4.27668e+07 4.09915e+07 3.63984e+07 3.55716e+07 3.54585e+07 3.45934e+07 3.43502e+07 3.29531e+07 3.43411e+07 3.03263e+07 2.97823e+07 2.93025e+07 2.68941e+07 2.60311e+07 2.45519e+07 2.31047e+07
threshold=86.836021505376365 2.2250000000000005 0 1 2.9000000000000004 2 3 316.78343381159203 35.131827209533277 4 144.59687500000004 0.90000000000000013 138.77097902097907 332.75772751908602 0.90000000000000013 5 6 97.500000000000014 325.27682416728186 55.500000000000007 55.500000000000007 2.5000000000000004 332.75772751908602 7 1.1000000000000003 8 48.500000000000007 97.500000000000014 9 46.522233201581038
decision_type=2 2 9 9 2 9 9 2 2 9 2 2 2 2 2 9 9 2 2 2 2 2 2 9 2 9 2 2 1 2
left_child=1 3 7 18 10 14 24 15 26 -8 11 -2 16 19 -5 -3 -6 28 -1 -10 -17 22 -16 -13 -7 -11 -4 -15 -9 -22
right_child=4 2 8 5 12 6 9 17 13 25 -12 23 -14 27 21 20 -18 -19 -20 -21 29 -23 -24 -25 -26 -27 -28 -29 -30 -31
leaf_value=3.9850315237368434 5.3736427748795093 -12.248376973009913 5.0833353375416621 13.503012708448928 -18.851631681597478 15.519324426185973 13.848851583454186 2.9407043868403018 -0.94832109484793359 18.042823375070419 -17.451537768479312 -10.897583619235995 -24.890530515276012 -7.6767910052373338 5.9688190507452354 -5.3511301284428576 -10.272563213874534 -2.6456210526397075 -4.1730717608083436 7.6524678713832133 8.8822002062652565 14.86530984057098 -3.5074019238374463 -3.0620003571605183 6.2852662823283829 28.795164158774504 16.471941418409802 4.695044285986028 -15.134613136495927 -0.90594366456304187
leaf_weight=15918 4502 4004 3238 7643 11439 5987 8547 792 8321 3966 3863 8125 6636 6799 13569 9946 8890 3212 8008 10677 3961 2832 5325 12644 8384 7887 5766 2268 14686 6165
leaf_count=15918 4502 4004 3238 7643 11439 5987 8547 792 8321 3966 3863 8125 6636 6799 13569 9946 8890 3212 8008 10677 3961 2832 5325 12644 8384 7887 5766 2268 14686 6165
internal_value=0.00136785 3.83178 -1.97307 9.09409 -11.4628 12.0166 16.1941 -7.04193 3.87565 20.4624 -5.85644 -4.08398 -17.5202 1.14977 7.06682 -3.02335 -15.1143 -12.2223 1.254 3.88538 -1.17643 4.80588 3.29808 -6.13406 10.1252 25.2157 12.3764 -4.58213 -14.2097 2.9229
internal_weight=224000 167901 79835 88066 56099 64140 34771 42766 37069 20400 29134 25271 26965 28065 29369 24076 20329 18690 23926 18998 20072 21726 18894 20769 14371 11853 9004 9067 15478 10126
internal_count=224000 167901 79835 88066 56099 64140 34771 42766 37069 20400 29134 25271 26965 28065 29369 24076 20329 18690 23926 18998 20072 21726 18894 20769 14371 11853 9004 9067 15478 10126
cat_boundaries=0 10 20 34 45 58 67 77 87 101 102
cat_threshold=65 768 3221225472 33554689 0 0 262144000 84913664 2147483680 4718658 0 0 0 320 0 0 1872756736 3847208452 2147483808 17301504 77 768 3221225472 268697600 2048 0 2151677962 143671304 526 9437242 0 0 0 1073741888 49284114 2105344 40960 3120 4259840 0 4 35651648 64 134217797 16424 1073873536 268781640 0 1109983233 5185 0 0 48 24576 301990528 0 0 8421376 0 0 0 0 0 0 18874368 67600896 32 147 8960 1073750016 65825 0 0 153092096 84908544 2147483680 71 1108344965 65536 1073741824 257 0 0 148897792 621779456 2147483749 1048592 268503040 524292 393216 202375680 1048576 268443664 268503040 257 16 1024 164869 65536 512 98336 2
is_linear=0
shrinkage=0.1


Tree=8
num_leaves=31
num_cat=10
split_feature=0 6 6 6 10 10 9 9 11 9 8 8 5 8 9 9 10 10 10 9 10 10 7 8 8 0 9 10 10 8
split_gain=8.46744e+08 4.23154e+08 2.04254e+08 1.38048e+08 1.28548e+08 1.23655e+08 8.19351e+07 7.09334e+07 6.01047e+07 5.58267e+07 5.54696e+07 5.43899e+07 4.82848e+07 4.45916e+07 4.23456e+07 4.11773e+07 3.8474e+07 3.65837e+07 3.58529e+07 3.48352e+07 3.45519e+07 3.19506e+07 2.95529e+07 2.53246e+07 2.46282e+07 2.42821e+07 2.42426e+07 2.22054e+07 2.19258e+07 2.18898e+07
threshold=54.518752930145347 2.6333333333333337 1.2250000000000003 1.1000000000000003 0 1 358.01839096366911 227.290368977209 2 273.93958629139973 95.500000000000014 50.500000000000007 5.5000000000000009 96.500000000000014 239.06763637733386 328.5671612999385 3 4 5 353.45750558813307 6 7 14.023809523809526 59.500000000000007 52.500000000000007 33.362010484119651 257.0841280802872 8 9 27.500000000000004
decision_type=2 2 2 2 9 9 2 2 1 2 2 2 2 2 2 2 9 9 9 2 9 9 2 2 2 2 2 9 9 2
left_child=2 3 13 16 8 20 12 11 -3 -10 19 -7 17 14 -1 23 -2 -5 -8 24 -4 -18 -11 -6 -9 -13 29 -23 -19 -22
right_child=1 4 5 6 15 7 18 10 9 22 -12 25 -14 -15 -16 -17 21 28 -20 -21 26 27 -24 -25 -26 -27 -28 -29 -30 -31
leaf_value=17.960593529660105 -1.2646944944768763 2.8555522363834975 -10.300863914540543 -6.1170138144859907 -4.9721065070421862 6.4254911042877243 -13.238542944381761 -1.8253806160993673 -8.9963387144913938 -19.909131423898469 13.113117710609579 23.369262739785889 12.347148738942291 24.911959023509812 8.7001602052552105 -10.17607611570015 4.5673706272848245 -2.1324708796321281 -3.183072176388182 -5.8057096411153575 -12.362956014300666 7.925987411256262 -12.723285718812814 3.8250290089284378 7.0157058510140864 13.337185116052893 -3.1025030526182888 17.923232513059009 4.0537578914015668 6.0059964193388566
leaf_weight=10383 4886 1899 3698 10480 8698 7810 8481 4625 9998 18938 5604 4190 2844 4190 9416 9587 9172 11259 6126 4580 712 4474 8202 5246 9885 5688 9452 4528 11647 7302
leaf_count=10383 4886 1899 3698 10480 8698 7810 8481 4625 9998 18938 5604 4190 2844 4190 9416 9587 9172 11259 6126 4580 712 4474 8202 5246 9885 5688 9452 4528 11647 7302
internal_value=0.00125499 -4.92291 7.6779 0.201 -10.9746 4.70995 -2.71 7.82614 -14.4933 -15.3843 4.36558 12.6618 -0.160871 15.5399 13.5565 -5.1289 6.61845 -1.22637 -9.03264 1.79768 -1.53335 8.73369 -17.7375 -1.66246 4.19765 17.5925 0.327793 12.9689 1.01343 4.37402
internal_weight=224000 136465 87535 73897 62568 63546 50837 42382 39037 37138 24694 17688 36230 23989 19799 23531 23060 33386 14607 19090 21164 18174 27140 13944 14510 9878 17466 9002 22906 8014
internal_count=224000 136465 87535 73897 62568 63546 50837 42382 39037 37138 24694 17688 36230 23989 19799 23531 23060 33386 14607 19090 21164 18174 27140 13944 14510 9878 17466 9002 22906 8014
cat_boundaries=0 10 20 21 31 45 54 63 77 91 105
cat_threshold=1073742049 256 3221225472 134217729 0 0 253755394 68136448 2147483680 9437190 1 0 0 257 0 0 799014912 3843010048 2147483682 4718600 2 37748865 512 0 64 0 0 731906048 1696576001 16548 1048580 21 520 0 64 4194304 0 27262976 621788672 164 26218498 0 0 0 1073741824 2097249 256 3221225472 134218049 0 0 94371842 1158647300 2147483812 0 0 0 0 0 0 27262976 491520 32 72 260 3221225472 288 6144 268435456 3292528642 180374536 2147491840 524330 8 0 0 64 3310598 811008 401408 268699664 65536 8192 12 2147483648 2 939524113 0 0 0 1073741856 1109394632 256 3221487616 4194561 0 0 100663306 14680064 2147508297 524376 0 0 0 32
is_linear=0
shrinkage=0.1


Tree=9
num_leaves=31
num_cat=8
split_feature=0 6 10 6 0 9 0 5 8 9 8 9 5 11 10 9 8 10 10 8 7 8 0 6 4 10 8 10 10 9
split_gain=6.97411e+08 3.5728e+08 2.49844e+08 1.20386e+08 9.63186e+07 9.37179e+07 7.43598e+07 6.73771e+07 5.1083e+07 4.97515e+07 4.89014e+07 4.86971e+07 4.48496e+07 3.62425e+07 3.41362e+07 3.393e+07 3.37795e+07 3.24636e+07 3.1914e+07 3.10613e+07 2.93431e+07 2.83213e+07 2.77851e+07 2.73923e+07 2.63403e+07 2.40438e+07 2.39775e+07 2.2081e+07 2.13181e+07 2.10323e+07
threshold=87.846989966555199 1.2250000000000003 0 3.2250000000000005 35.936491935483879 280.19830113257541 38.215838509316775 7.5000000000000009 53.500000000000007 353.45750558813307 94.500000000000014 349.97577212986283 1.0000000180025095e-35 1 2 331.736670219178 62.500000000000007 3 4 64.500000000000014 18.033333333333335 62.500000000000007 40.407785336356774 3.2250000000000005 3.7202150537634413 5 48.500000000000007 6 7 279.14872860936327
decision_type=2 2 9 2 2 2 2 2 2 2 2 2 2 1 9 2 2 9 9 2 2 2 2 2 2 9 2 9 9 2
left_child=1 6 5 9 19 8 16 11 -3 21 18 17 15 -5 -15 27 -1 -6 -7 -4 23 -2 -10 -20 -14 -11 -19 -8 -13 -18
right_child=3 2 4 13 7 10 12 -9 22 25 -12 28 24 14 -16 -17 29 26 20 -21 -22 -23 -24 -25 -26 -27 -28 -29 -30 -31
leaf_value=12.432865200261546 -5.1604421659529631 -4.037283307136617 8.0281154038774343 2.271464038886827 21.239108035239308 -15.994247267697626 2.9385476365866836 13.956311849064711 11.055906819758487 -15.72791859845481 0.60526720961776737 -10.406817094257818 29.101372477705855 -20.215658781779766 -12.27101284106762 1.1165553485212982 28.267815475681683 -1.4828722532618483 -5.7408661870503357 17.113797179293403 0.35664239592278785 3.2343100169062704 1.5895257708808517 -13.222162243263368 12.744632754731635 -6.4662026653317248 4.633954641907275 10.868661925300927 -0.87958683106446378 16.200554227366975
leaf_weight=6317 14384 13904 8979 1112 969 5443 4673 4754 4406 5654 6341 3987 1289 10906 11042 7818 3291 9309 11014 6477 3967 5577 10465 8808 4168 5653 20567 14437 5715 2574
leaf_count=6317 14384 13904 8979 1112 969 5443 4673 4754 4406 5654 6341 3987 1289 10906 11042 7818 3291 9309 11014 6477 3967 5577 10465 8808 4168 5653 20567 14437 5715 2574
internal_value=0.00112159 3.1585 0.419651 -9.85971 5.01823 -3.92247 10.8468 2.69337 0.32015 -5.81716 -7.35543 1.37282 8.34156 -15.3412 -16.2335 6.6663 17.5068 3.31644 -9.08226 11.8356 -7.4909 -2.81499 4.39424 -9.06522 16.6083 -11.1171 2.72711 8.93672 -4.8064 22.9718
internal_weight=224000 169672 125105 54328 60757 64348 44567 45301 28775 31268 35573 40547 32385 23060 21948 26928 12182 30845 29232 15456 23789 19961 14871 19822 5457 11307 29876 19110 9702 5865
internal_count=224000 169672 125105 54328 60757 64348 44567 45301 28775 31268 35573 40547 32385 23060 21948 26928 12182 30845 29232 15456 23789 19961 14871 19822 5457 11307 29876 19110 9702 5865
cat_boundaries=0 10 11 21 35 43 53 67 79
cat_threshold=65 768 3221225472 257 0 0 262144000 1695526400 2147483680 17301506 2 1049747 768 8192 134218001 0 0 253755392 17275392 2147491840 27 2281963520 50331648 0 32768 131200 8389632 37200 1 256 0 262144 1631858952 65536 2359296 0 512 0 1 0 0 18874368 459264 109 74240 2147483648 305 0 0 228593666 621218304 2147483680 524290 4194304 8 8192 268435712 4196352 0 77594624 1843112456 2147483684 20 0 0 0 1073741824 3146926 73732 0 69470320 0 0 536870914 41947140 132 208 0 268435456
is_linear=0
shrinkage=0.1


Tree=10
num_leaves=31
num_cat=12
split_feature=0 6 6 6 7 0 9 5 10 5 9 9 10 10 11 10 10 6 10 10 10 8 0 8 0 0 8 10 10 10
split_gain=5.86578e+08 3.11708e+08 1.2946e+08 1.16435e+08 9.67941e+07 8.9981e+07 6.74815e+07 6.72922e+07 5.86508e+07 5.8107e+07 5.24057e+07 5.08854e+07 4.19849e+07 4.15473e+07 3.1916e+07 2.9372e+07 2.87682e+07 2.84215e+07 2.76911e+07 2.73233e+07 2.71098e+07 2.58282e+07 2.43189e+07 2.16105e+07 2.12767e+07 1.98585e+07 1.885e+07 1.83471e+07 1.83153e+07 1.81558e+07
threshold=51.202272727272735 2.9000000000000004 1.9000000000000001 0.90000000000000013 17.837719298245617 109.10435571687842 380.76520933717887 1.5000000000000002 0 5.5000000000000009 358.01839096366911 210.64167692103157 1 2 3 4 5 5.2250000000000005 6 7 8 44.500000000000007 21.075235849056607 52.500000000000007 32.934408602150548 159.91833333333335 95.500000000000014 9 10 11
decision_type=2 2 2 2 2 2 2 2 9 2 2 2 9 9 1 9 9 2 9 9 9 2 2 2 2 2 2 9 9 9
left_child=2 3 9 19 6 7 13 10 -4 11 20 21 24 -3 -6 -14 -13 -16 -15 -2 -5 -1 -23 -18 -10 -7 -8 -22 -12 -9
right_child=1 4 8 5 14 25 26 29 12 -11 28 16 15 18 17 -17 23 -19 -20 -21 27 22 -24 -25 -26 -27 -28 -29 -30 -31
leaf_value=8.7865948982998709 21.125443947995926 -12.7190660464821 -4.0855955694856103 -4.4094023594499872 9.9387336392904739 -7.8261599382928893 -19.059553661104299 -1.8894637274995167 6.0890363603376194 23.603170114013711 -11.486554670825793 -1.0982073206407503 3.4054996865048057 -8.8695585689975296 1.963947928897644 12.036877997672196 2.2773541165166082 -7.4884963396803386 -0.75625379285618222 6.4984699419231866 18.219368282117571 30.816700323235878 16.016136037450973 10.900633127279249 -1.1221772930938181 -18.764886642838196 -8.5032690762830843 1.6162750282089644 -3.656737935868799 10.328587449297268
leaf_weight=4226 1391 15821 8580 8583 1884 9137 11153 1474 6712 3562 5347 3635 6420 10584 5084 10319 3851 8498 6994 15180 673 1325 6847 11845 10480 2028 1994 26527 6829 7017
leaf_count=4226 1391 15821 8580 8583 1884 9137 11153 1474 6712 3562 5347 3635 6420 10584 5084 10319 3851 8498 6994 15180 673 1325 6847 11845 10480 2028 1994 26527 6829 7017
internal_value=0.000799988 -3.73225 7.01559 0.230724 -9.11229 -1.61036 -11.3897 0.0120113 3.29892 11.4926 -1.44075 10.1331 5.16589 -9.00076 -2.25837 8.73045 6.92593 -3.95027 -5.64367 7.74295 0.48752 15.1336 18.4159 8.77933 1.6922 -9.81306 -17.4585 2.03362 -7.10758 8.21753
internal_weight=224000 146198 77802 84186 62012 67615 46546 56450 42511 35291 47959 31729 33931 33399 15466 16739 19331 13582 17578 16571 35783 12398 8172 15696 17192 11165 13147 27200 12176 8491
internal_count=224000 146198 77802 84186 62012 67615 46546 56450 42511 35291 47959 31729 33931 33399 15466 16739 19331 13582 17578 16571 35783 12398 8172 15696 17192 11165 13147 27200 12176 8491
cat_boundaries=0 13 27 37 38 52 66 76 90 104 118 127 141
cat_threshold=33554432 0 0 66304 0 0 27262976 1277152768 40 4194368 0 0 8388608 8389649 768 3221225472 1121 65536 0 738197514 2709528576 2147500038 554 0 0 0 1073741824 2097177 256 2147483648 134479905 0 0 85983234 219126272 32 1048793 2 539099212 2097152 1 304359440 526336 0 2181038084 4194304 8464 134742145 49152 0 0 32768 72 2097664 0 32 0 0 799014912 1720694272 8352 20 0 0 0 1073741824 1073741888 73732 1073741824 65872 0 0 180357128 2684363776 2147491974 143130658 24576 16777216 1 2188914818 192 142607376 6208 0 0 17408 261 268435456 0 2097152 536870932 520 0 0 0 0 10485760 621785600 2147500268 563089408 0 0 0 1073741856 133120 51908608 1 2684354562 131586 8388608 135248 1 0 0 262144 1610883328 128 2097152 1074791585 256 0 2097457 0 0 1168113664 84646404 2147483876 1048576 0 8192 65632 2048 0 3386900480 2220548608 160 268436496 16392 0 0 1073741888
is_linear=0
shrinkage=0.1


Tree=11
num_leaves=31
num_cat=13
split_feature=0 6 10 10 4 6 10 9 10 0 8 9 9 11 10 8 10 10 10 6 6 8 10 10 8 0 10 8 10 9
split_gain=4.85783e+08 2.54858e+08 1.46997e+08 1.12617e+08 1.05219e+08 8.35543e+07 7.93479e+07 6.34505e+07 5.43272e+07 4.77646e+07 3.82017e+07 4.21506e+07 3.75313e+07 3.73252e+07 3.59309e+07 3.2035e+07 3.08492e+07 2.98459e+07 2.93335e+07 2.66761e+07 2.43305e+07 2.26239e+07 2.25943e+07 2.2504e+07 2.20916e+07 2.03076e+07 1.88669e+07 1.8767e+07 1.81557e+07 1.78081e+07
threshold=88.381652661064436 3.2250000000000005 0 1 14.25198412698413 1.6333333333333335 2 300.86015481643597 3 171.8496240601504 94.500000000000014 332.75772751908602 379.4345079947214 4 5 97.500000000000014 6 7 8 5.6333333333333337 0.90000000000000013 56.500000000000007 9 10 74.500000000000014 136.31980519480524 11 54.500000000000007 12 379.4345079947214
decision_type=2 2 9 9 2 2 9 2 9 2 2 2 2 1 9 2 9 9 9 2 2 2 9 9 2 2 9 2 9 2
left_child=1 2 18 10 7 22 20 14 -8 12 11 21 17 -6 -3 23 -10 -7 -1 -15 -5 -4 -2 -9 -16 -24 -19 -21 -18 -20
right_child=5 4 3 6 13 9 8 15 16 -11 -12 -13 -14 19 24 -17 28 26 29 27 -22 -23 25 -25 -26 -27 -28 -29 -30 -31
leaf_value=-6.5366476097971686 12.612519771867142 -8.342396736040909 1.6902575015772485 12.843941302371546 14.725122952555981 -13.411898248415321 9.2445437109205688 -15.301255299177928 12.870291632679253 -21.617700344162941 11.092760757440693 -3.1951798227885497 -14.671521765353305 8.9885076698489854 -1.2289433081918726 -1.3682809980019113 15.994579010303648 -7.5687150386127433 2.2133761247762225 -6.5509219489417312 4.3765851008084127 7.3947137407455834 -1.348628765337655 -7.8330754674279603 7.781148709767348 -11.618738840649845 -0.54925138307386412 2.9983547488575777 26.189456201018135 -5.2187881534884637
leaf_weight=6789 979 5801 13760 4418 2784 6308 9420 7942 4976 3686 6214 9329 10402 3660 11395 3876 2724 12453 18923 3710 14635 14053 11767 8378 3575 2302 5542 4622 5691 3886
leaf_count=6789 979 5801 13760 4418 2784 6308 9420 7942 4976 3686 6214 9329 10402 3660 11395 3876 2724 12453 18923 3710 14635 14053 11767 8378 3575 2302 5542 4622 5691 3886
internal_value=0.000828292 2.6075 5.30089 7.40909 -2.94027 -8.31888 11.109 -5.54951 15.0906 -10.7945 3.83477 2.62151 -9.64495 4.29393 -1.66886 -9.54065 19.1931 -7.49351 -0.771385 1.87228 6.33667 4.57253 -2.00305 -11.4816 0.922149 -3.02689 -5.40841 -1.25366 22.9122 0.946733
internal_weight=224000 170561 114818 85220 55743 53439 41864 40967 22811 38391 43356 37142 34705 14776 20771 20196 13391 24303 29598 11992 19053 27813 15048 16320 14970 14069 17995 8332 8415 22809
internal_count=224000 170561 114818 85220 55743 53439 41864 40967 22811 38391 43356 37142 34705 14776 20771 20196 13391 24303 29598 11992 19053 27813 15048 16320 14970 14069 17995 8332 8415 22809
cat_boundaries=0 10 24 35 49 50 61 75 85 94 108 118 128 142
cat_threshold=0 0 0 64 0 0 1872756736 3831479820 2147483812 524288 2098253 768 3221225472 268697856 0 0 2151677962 159399936 10 17825851 0 0 0 1073741888 47185938 2170880 40960 1073744945 68608 0 4 33554496 576 142607040 16392 1342177920 280584 262144 36241408 4198465 0 2048 2097184 24576 301989892 33 65536 32768 32 2 536870928 0 2147483648 134292001 0 0 18876424 613403136 8224 8388832 8 237568 268435524 131072 202383872 1049088 268437520 65536 17 0 541082624 164864 0 8389120 2147516416 33555585 2097156 0 65537 0 0 153092096 1158126080 38 1048597 0 0 0 0 0 0 10485760 1141342720 32 1077977088 18874368 0 2149064706 1052224 8388608 536872960 1048684 0 17408 13 0 0 2129920 1075840237 11008 2147483648 35651633 0 0 90181634 887296 0 16 1075839046 8960 3221225472 134218098 0 0 75497482 680010752 2147483776 524322 536873248 659472 0 2147483648 262144 8192 0 256 272 4096 262404 268697600 448 69632
is_linear=0
shrinkage=0.1


Tree=12
num_leaves=31
num_cat=8
split_feature=0 6 9 6 5 10 9 8 8 0 5 9 7 10 5 8 10 6 6 7 8 0 4 7 10 10 10 10 6 10
split_gain=4.19576e+08 2.1709e+08 1.12749e+08 9.43248e+07 8.1914e+07 7.3853e+07 7.35902e+07 6.11087e+07 5.47871e+07 5.01216e+07 4.38342e+07 3.89268e+07 3.14657e+07 2.9958e+07 2.91286e+07 2.75276e+07 2.64669e+07 2.52814e+07 2.48522e+07 2.19971e+07 2.17554e+07 1.98763e+07 1.82674e+07 1.72042e+07 1.70513e+07 1.69861e+07 1.59748e+07 1.51732e+07 1.4959e+07 1.46646e+07
threshold=50.291987179487194 1.4500000000000002 379.4345079947214 0.90000000000000013 4.5000000000000009 0 247.08398717422932 66.500000000000014 24.500000000000004 18.965517241379313 1.0000000180025095e-35 373.99911277287435 19.605555555555558 1 11.500000000000002 49.500000000000007 2 0.90000000000000013 3.6333333333333337 16.514705882352946 52.500000000000007 32.006578947368432 4.1468627450980398 4.4852941176470598 3 4 5 6 4.2250000000000005 7
decision_type=2 2 2 2 2 9 2 2 2 2 2 2 2 9 2 2 9 2 2 2 2 2 2 2 9 9 9 9 2 9
left_child=3 10 5 25 6 24 8 12 -5 -10 11 17 18 -4 19 -11 -8 -2 27 28 -18 -22 -12 -6 -3 -1 -17 -7 -9 -15
right_child=1 2 13 4 23 7 16 14 9 15 22 -13 -14 29 -16 26 20 -19 -20 -21 21 -23 -24 -25 -26 -27 -28 -29 -30 -31
leaf_value=3.4581531985376501 6.7580208916222695 -16.297569915545065 -13.900583801630928 -10.47328993830989 24.001603250021304 10.0486311898031 -6.0747465257664075 1.1337215319821405 18.23619924862761 1.9713849983791603 19.1525414151155 -5.2038197277804956 1.4376372880290407 -10.595407704109231 13.097044260678098 -0.085300552979341471 -3.9922353816805378 0.73719380030245818 -8.8494039334807333 7.9124877999813412 8.3316014659727564 0.92643308439554028 7.278216005631406 12.120961380876526 -8.0491971933394808 16.325634031963872 10.364215035405397 -3.9078686165445471 -6.4889093326168421 -3.2024992872512281
leaf_weight=1177 11724 3145 15815 1688 1545 800 5989 10702 4128 9026 1751 6856 8096 5601 2288 1676 5659 17214 13494 3756 5184 12050 4981 5774 12858 9291 11977 21166 3390 5199
leaf_count=1177 11724 3145 15815 1688 1545 800 5989 10702 4128 9026 1751 6856 8096 5601 2288 1676 5659 17214 13494 3756 5184 12050 4981 5774 12858 9291 11977 21166 3390 5199
internal_value=0.000823002 -3.07479 -5.49029 6.09101 4.66605 -3.6083 3.39519 -2.08105 7.00073 8.10105 2.96366 1.57132 -4.18745 -11.1257 2.47423 6.25626 -0.162036 3.17648 -5.47173 1.11245 1.38683 3.15391 10.3667 14.6289 -9.67938 14.8977 9.08899 -3.39678 -0.699994 -7.0428
internal_weight=224000 148836 106310 75164 64696 79695 57377 63692 28495 26807 42526 35794 43556 26615 20136 22679 28882 28938 35460 17848 22893 17234 6732 7319 16003 10468 13653 21966 14092 10800
internal_count=224000 148836 106310 75164 64696 79695 57377 63692 28495 26807 42526 35794 43556 26615 20136 22679 28882 28938 35460 17848 22893 17234 6732 7319 16003 10468 13653 21966 14092 10800
cat_boundaries=0 10 20 34 44 55 69 83 93
cat_threshold=1 0 0 1 0 0 228589568 67602944 32 26214400 1074791651 73984 3221233664 201326593 0 0 52432896 1018368 2147483776 524290 208 512 8192 512 4194304 0 564133888 72336896 8364 16408 4 0 0 3221225472 0 0 0 0 0 0 2097152 262144 32 1048576 8 2097152 8192 268435456 1050624 16 2329935872 2890129928 32 12 262152 33554432 720900 1 8192 512 0 232783872 3767177224 0 524312 8 0 128 1073741824 134383872 33816592 8192 537920128 131072 8388608 536875344 112 8192 1024 132100 262144 0 1075838976 268443668 16896 0 10608 0 0 616564738 1644196868 8481 129
is_linear=0
shrinkage=0.1


Tree=13
num_leaves=31
num_cat=11
split_feature=0 10 6 6 9 8 6 0 8 10 11 11 10 10 10 0 9 8 0 8 0 9 10 10 10 8 0 5 10 0
split_gain=3.46727e+08 1.64878e+08 1.01284e+08 9.80759e+07 7.22957e+07 5.60316e+07 5.10321e+07 4.41967e+07 4.37952e+07 3.36232e+07 3.35417e+07 3.3157e+07 3.11365e+07 2.7851e+07 2.74038e+07 2.50815e+07 2.43525e+07 2.61783e+07 2.27842e+07 2.20452e+07 2.20264e+07 2.1797e+07 1.99813e+07 1.99454e+07 1.92504e+07 1.91554e+07 1.75172e+07 1.62199e+07 1.60887e+07 1.56037e+07
threshold=77.890096618357504 0 1.1000000000000003 3.2250000000000005 300.86015481643597 66.500000000000014 3.1000000000000005 126.2526595744681 95.500000000000014 1 2 3 4 5 6 38.215838509316775 402.72519744061367 67.500000000000014 22.376388888888894 96.500000000000014 28.590326340326346 210.64167692103157 7 8 9 75.500000000000014 147.77003205128207 10.500000000000002 10 25.44590643274854
decision_type=2 9 2 2 2 2 2 2 2 9 1 1 9 9 9 2 2 2 2 2 2 2 9 9 9 2 2 2 9 2
left_child=1 6 19 7 5 14 15 9 13 -2 -5 -8 -12 -6 -4 25 17 -11 -16 21 -7 -3 -17 -15 -13 -1 28 -22 -14 -26
right_child=3 2 4 10 8 20 11 -9 -10 16 12 24 26 23 18 22 -18 -19 -20 -21 27 -23 -24 -25 29 -27 -28 -29 -30 -31
leaf_value=2.5654024101044959 16.244141590507432 15.123907097835952 20.859591453581064 4.3920498493793714 -7.7476604487342797 19.025793602845447 8.9424752956483413 -9.1932469260560925 6.5827875559271751 -2.320056962069398 -15.16348721798844 -12.836343610501315 -9.0746784937400573 16.775037887369187 9.6516200970934438 -6.7528342406424713 -7.7534892145022631 4.3978389038560302 1.6456421439606588 19.168962945716778 7.7382228222607097 7.6226658447516442 0.66088933364778046 -0.92170816788315835 3.6563784718528396 12.44672936366042 -16.262978190986058 17.812134802419138 -1.9163173973816612 -5.7023979947775718
leaf_weight=6736 1076 5920 867 1528 7281 2765 1599 8278 6578 21155 10439 3441 11070 663 4210 4323 5463 7992 22838 3276 11069 11207 22574 11856 1999 2768 2377 1868 4409 16375
leaf_count=6736 1076 5920 867 1528 7281 2765 1599 8278 6578 21155 10439 3441 11070 663 4210 4323 5463 7992 22838 3276 11069 11207 22574 11856 1999 2768 2377 1868 4409 16375
internal_value=0.000642861 2.75808 5.45271 -5.61286 3.64612 6.14541 -1.31497 -2.61012 -0.486542 -1.08304 -10.0394 -4.95716 -10.8187 -2.83513 3.45729 1.02741 -1.62596 -0.478035 2.8907 11.6531 10.9243 10.2155 -0.532941 0.0281436 -5.97597 5.4433 -8.26557 9.19282 -7.04281 -4.68166
internal_weight=224000 150213 90398 73787 69995 43617 59815 43964 26378 35686 29823 23414 28295 19800 27915 36401 34610 29147 27048 20403 15702 17127 26897 12519 21815 9504 17856 12937 15479 18374
internal_count=224000 150213 90398 73787 69995 43617 59815 43964 26378 35686 29823 23414 28295 19800 27915 36401 34610 29147 27048 20403 15702 17127 26897 12519 21815 9504 17856 12937 15479 18374
cat_boundaries=0 10 24 25 26 36 49 62 71 85 95 105
cat_threshold=0 0 2147483648 320 0 0 765460482 3830427136 2147483808 17301602 134258688 319819776 0 2752520322 1538 8389648 64 2097152 16 0 262404 262144 0 2149580800 2 2 1074856099 512 8192 134217745 0 0 119537664 498176 2147491888 92 271590503 11012 8192 169869345 0 0 65536 33554432 16448 17041 16384 0 64 262400 34209808 32 536903684 131200 8388608 262480 0 8650753 33554432 264256 1615073536 65538 0 0 0 0 0 0 10485760 1141342720 160 679477248 34603008 393216 2147516930 131073 0 336 257 256 8389632 1312 262144 32896 16842752 0 0 0 0 0 0 18874368 98304 0 64 270533648 90368 3221225472 262944 0 0 14 3850904580 0 524323
is_linear=0
shrinkage=0.1


Tree=14
num_leaves=31
num_cat=8
split_feature=0 6 10 8 9 7 5 8 9 6 7 0 9 8 9 5 9 9 8 10 10 4 10 10 8 10 4 10 0 10
split_gain=2.90924e+08 1.64404e+08 7.78966e+07 6.98333e+07 6.88632e+07 6.51333e+07 5.55805e+07 4.61455e+07 4.41675e+07 4.40764e+07 4.08249e+07 3.24101e+07 3.01085e+07 2.88227e+07 2.59803e+07 2.56763e+07 2.42411e+07 2.32659e+07 2.19223e+07 2.00293e+07 1.99816e+07 1.9495e+07 1.8495e+07 1.71287e+07 1.7062e+07 1.58847e+07 1.5505e+07 1.45582e+07 1.40871e+07 1.33344e+07
threshold=46.842621259029933 3.2250000000000005 0 95.500000000000014 210.64167692103157 22.577380952380956 1.5000000000000002 22.500000000000004 332.75772751908602 0.90000000000000013 10.513157894736844 16.552457813646374 359.23306480493301 44.500000000000007 342.89258371193631 10.500000000000002 293.70380985191946 402.72519744061367 48.500000000000007 1 2 3.5792464114832541 3 4 56.500000000000007 5 3.4566559312936129 6 16.552457813646374 7
decision_type=2 2 9 2 2 2 2 2 2 2 2 2 2 2 2 2 2 2 2 9 9 2 9 9 2 9 2 9 2 9
left_child=3 2 17 4 7 8 9 -1 15 -4 14 -9 13 -6 25 20 26 24 -13 -15 -3 -8 -10 -7 -2 -11 -5 -22 -21 -23
right_child=1 5 6 16 12 23 21 11 22 10 -12 18 -14 19 -16 -17 -18 -19 -20 28 27 29 -24 -25 -26 -27 -28 -29 -30 -31
leaf_value=-10.0159584614686 -5.1883546857221692 -11.84185244065489 6.3253190188398305 30.774998382844043 -3.8596682246119145 -4.4808246068247959 21.947361210485301 20.064032921568863 -13.960612909778902 -3.434428448409534 4.0983207803718873 3.939424916767964 -5.1984219238312006 -3.0490159407800412 -6.6688366811218174 9.6226877677836455 9.0383473519204305 -9.7079659474669757 10.960508057327573 14.810737404939667 -6.479435705918366 1.1789514690174376 -8.1665451324541873 4.0440334132195748 -0.16767635242176349 1.9379405016713929 15.744280188350409 -0.74151446367353313 4.7717377530644169 9.4908017995831226
leaf_weight=1278 13448 4609 11555 851 5395 3802 996 2575 12204 10325 13188 7531 5987 3122 10234 1112 6496 5666 10860 1529 12970 2652 10282 6166 13628 11764 3546 6725 16288 7216
leaf_count=1278 13448 4609 11555 851 5395 3802 996 2575 12204 10325 13188 7531 5987 3122 10234 1112 6496 5666 10860 1529 12970 2652 10282 6166 13628 11764 3546 6725 16288 7216
internal_value=0.000579134 -2.31508 0.126414 5.60921 4.14983 -6.56237 2.05755 8.43209 -8.09276 0.809788 -0.590576 9.55661 1.20269 2.65798 -2.50368 -5.23663 12.9195 -3.87956 8.08542 4.33727 -5.9165 8.61363 -11.321 0.792039 -2.66133 -0.573928 18.6533 -4.52155 5.63009 7.26783
internal_weight=224000 158542 100672 65458 54565 57870 67930 22244 47902 57066 45511 20966 32321 26334 32323 25416 10893 32742 18391 20939 24304 10864 22486 9968 27076 22089 4397 19695 17817 9868
internal_count=224000 158542 100672 65458 54565 57870 67930 22244 47902 57066 45511 20966 32321 26334 32323 25416 10893 32742 18391 20939 24304 10864 22486 9968 27076 22089 4397 19695 17817 9868
cat_boundaries=0 10 24 34 44 54 68 78 92
cat_threshold=33554497 0 0 134217792 0 0 161480704 1695526404 2147483876 59768832 805306388 2097664 0 64 0 0 161480704 612746752 32 60 17416 268435456 32768 2147483648 1074790536 65536 0 134217729 0 0 18874368 134711808 50 1048665 1074791665 8192 3221233664 75825 0 0 119607296 33786368 2147483648 2 225 66052 8192 33555712 64 0 228589568 21736960 8224 134234144 1048596 17160 3221225472 37815553 0 0 33556482 180359168 24579 536870914 4 0 0 1073741856 19 768 3221225472 33817424 0 16 37750794 629679104 2147483776 524418 1117198 256 8192 262144 2048 0 3292528642 2151698440 8 268960808 8 262144 32768 1073741888
is_linear=0
shrinkage=0.1


Tree=15
num_leaves=31
num_cat=13
split_feature=0 6 5 9 0 10 8 10 10 0 6 10 0 10 10 9 7 10 10 6 7 5 10 10 5 10 9 10 10 7
split_gain=2.50804e+08 1.39388e+08 1.00339e+08 1.01427e+08 5.16834e+07 4.8919e+07 4.23823e+07 3.97239e+07 3.41045e+07 3.28627e+07 2.87866e+07 2.82819e+07 2.34327e+07 2.21377e+07 2.19124e+07 2.03067e+07 1.97992e+07 1.95302e+07 1.803e+07 1.76035e+07 1.67024e+07 1.55195e+07 1.50495e+07 1.49169e+07 1.48857e+07 1.47853e+07 1.44086e+07 1.38726e+07 1.59054e+07 1.26093e+07
threshold=88.381652661064436 1.1000000000000003 8.5000000000000018 243.69444565354533 144.59687500000004 0 44.500000000000007 1 2 21.721576227390184 1.2250000000000003 3 38.572948328267479 4 5 460.66400401313996 22.345238095238098 6 7 3.9000000000000004 4.8047619047619055 8.5000000000000018 8 9 11.500000000000002 10 380.76520933717887 11 12 14.339743589743593
decision_type=2 2 2 2 2 9 2 9 9 2 2 9 2 9 9 2 2 9 9 2 2 2 9 9 2 9 2 9 9 2
left_child=1 11 3 6 8 25 13 16 -2 -8 -10 -1 -13 -3 -9 18 19 -11 -12 -7 -4 29 -15 -19 26 -5 -14 -16 -29 -20
right_child=4 2 20 5 -6 7 9 14 10 17 15 12 24 22 27 -17 -18 23 21 -21 -22 -23 -24 -25 -26 -27 -28 28 -30 -31
leaf_value=23.712305410738001 15.972454491840271 -8.0626896631841571 18.083967678192053 -13.218977448691454 -12.641091314287065 -2.1535425425025045 15.621025073915504 20.464937307138044 0.33197273849229414 -2.0775917389039904 -9.2452167518718174 11.415643644011979 5.8996777343590558 -2.5496714367395881 -1.0677272716604456 -14.102914523390831 4.3740007456301413 17.816555879523847 -5.9855408474151517 -7.4343132335115385 7.9417646523908205 8.1639987797575753 4.368675755434702 5.0239975853126353 16.221505545051524 -5.2902356947237203 -1.2418120313979417 0.53111741041509652 7.8450740095191875 -0.58776293428083648
leaf_weight=1048 788 3334 2019 2625 9558 20132 2917 654 8441 3921 8943 9028 19529 5969 8565 2959 3288 943 15774 9196 8294 1012 6624 23100 1216 22956 3303 5922 5978 5964
leaf_count=1048 788 3334 2019 2625 9558 20132 2917 654 8441 3921 8943 9028 19529 5969 8565 2959 3288 943 15774 9196 8294 1012 6624 23100 1216 22956 3303 5922 5978 5964
internal_value=0.000362732 1.87334 0.443666 -0.331801 -5.97761 -2.5103 3.35966 -0.795972 -4.5262 5.52065 -4.90361 7.58957 7.06942 -0.830309 2.58223 -6.18037 -2.98349 4.46706 -5.44069 -3.80937 9.92733 -3.93934 1.09 5.53294 5.44072 -6.10869 4.86655 2.00103 4.20881 -4.50462
internal_weight=224000 170561 136437 126124 53439 79316 46808 53735 43881 30881 43093 34124 33076 15927 21119 34652 32616 27964 31693 29328 10313 22750 12593 24043 24048 25581 22832 20465 11900 21738
internal_count=224000 170561 136437 126124 53439 79316 46808 53735 43881 30881 43093 34124 33076 15927 21119 34652 32616 27964 31693 29328 10313 22750 12593 24043 24048 25581 22832 20465 11900 21738
cat_boundaries=0 13 23 37 52 66 81 95 109 120 135 143 157 171
cat_threshold=2098289 512 32768 262145 0 0 564133888 68128256 16544 5242898 0 0 8388608 1074790414 90376 3221225472 134218032 0 0 234881034 25190400 2147483668 8912905 33280 269488128 0 1048704 1056258 8389632 536875008 2097520 0 0 393476 262144 0 2129984 16416 51384320 0 4198530 8913152 0 20560 0 4194320 0 4 822083844 65536 128 1 268502018 512 8192 8705 0 0 1109393412 3960182792 16418 536870978 0 0 0 32 2684616704 34603008 1 8 0 33555520 16464 256 12582912 0 295168 1610879232 65536 16842752 16 536870928 196612 0 1073741920 4198400 0 614465536 3289350152 32 276824200 32 0 0 1073774592 33554561 4 8192 134283585 0 0 161480704 1636276736 162 9437248 0 0 0 32 1048704 256 3221225472 2416250176 4194304 0 8392706 1328644 2147483648 142606377 131080 402661408 33554432 0 537038989 131073 1024 336 33554433 1 0 0 1627390208 65600 128 1 0 0 0 0 0 0 2097152 262144 2176 2097152 8192 371264704 12648448 0 272631808 1245708288 0 151011936 0 268435456 0 262144 4202496 6144 0 1077944320 1049664 0 3221225476 2685407240 8267 128 12 0 128 3221225536
is_linear=0
shrinkage=0.1


Tree=16
num_leaves=31
num_cat=11
split_feature=9 8 8 0 6 0 10 11 10 10 10 8 9 10 5 10 6 2 6 8 7 10 4 10 9 9 7 10 3 10
split_gain=2.06248e+08 1.41453e+08 1.04569e+08 5.89728e+07 5.84807e+07 4.48636e+07 4.03484e+07 3.91043e+07 3.77373e+07 3.38364e+07 3.25315e+07 3.0989e+07 2.97549e+07 2.73748e+07 2.32754e+07 2.23787e+07 2.11976e+07 2.10647e+07 2.0791e+07 2.07499e+07 1.9688e+07 1.8158e+07 1.80989e+07 1.37644e+07 1.34619e+07 1.32908e+07 1.2945e+07 1.27641e+07 1.24916e+07 1.223e+07
threshold=310.35525357341299 56.500000000000007 95.500000000000014 32.489778890279524 3.2250000000000005 25.44590643274854 0 1 2 3 4 95.500000000000014 520.06857538849556 5 3.5000000000000004 6 3.1000000000000005 4.5000000000000009 0.90000000000000013 21.500000000000004 17.683333333333337 7 3.3506756756756761 8 202.29702456830913 425.10124325430235 13.514705882352944 9 3.5000000000000004 10
decision_type=2 2 2 2 2 2 9 1 9 9 9 2 2 9 2 9 2 2 2 2 2 9 2 9 2 2 2 9 2 9
left_child=1 5 4 24 8 19 -5 -6 -2 20 -7 15 14 -12 -4 -8 -15 23 -17 -1 25 -11 -16 -9 -3 -10 -19 -21 -20 -18
right_child=2 3 12 6 7 10 11 17 9 21 13 -13 -14 16 22 18 29 26 28 27 -22 -23 -24 -25 -26 -27 -28 -29 -30 -31
leaf_value=-8.7024460292041788 -8.0740555310420543 16.695756443132318 1.9984035980831028 -0.89654970254837174 5.5152379076169726 -5.6162036075413155 18.254134935140609 -10.756774244836564 -3.2043315501174776 15.763267466712572 17.644724684650182 12.66964842009326 -10.910928873963607 1.1355218968324794 21.959259233401436 10.123228226856318 -6.1864995907939857 -14.809884989297387 5.9658575735156631 -0.29586192756491803 7.042405702634027 1.730213175762402 7.3828704863204528 -4.9248592669576929 9.5795147943166636 -9.7509309264393345 -8.1506595512689568 9.4268084301536881 1.6584064964732119 -0.37540249211672005
leaf_weight=881 10408 4847 9579 10474 1931 15128 1206 6246 18131 988 832 6048 1276 26159 1049 5390 8167 7800 11069 1706 1638 12247 4532 11683 5887 3741 4665 6591 17185 6516
leaf_count=881 10408 4847 9579 10474 1931 15128 1206 6246 18131 988 832 6048 1276 26159 1049 5390 8167 7800 11069 1706 1638 12247 4532 11683 5887 3741 4665 6591 17185 6516
internal_value=0.000568523 2.62636 -3.50598 6.05163 -5.00752 -0.59779 4.64307 -8.28371 -2.76159 -1.25429 -1.64596 6.0605 3.75485 -0.203337 4.98926 4.91527 -0.571154 -9.16038 4.43038 5.88928 -3.53063 2.7889 10.1226 -6.96529 12.7929 -4.32407 -12.3177 7.43867 3.34593 -3.61213
internal_weight=224000 128086 95914 62106 79478 65980 51372 32325 47153 36745 56802 40898 16436 41674 15160 34850 40842 30394 33644 9178 23510 13235 5581 17929 10734 21872 12465 8297 28254 14683
internal_count=224000 128086 95914 62106 79478 65980 51372 32325 47153 36745 56802 40898 16436 41674 15160 34850 40842 30394 33644 9178 23510 13235 5581 17929 10734 21872 12465 8297 28254 14683
cat_boundaries=0 13 14 28 41 55 69 84 98 108 122 133
cat_threshold=536870912 0 0 134218240 0 0 2409627648 2752439872 8224 18350116 8 65536 32768 2 33555617 8196 8192 134217824 0 0 10485760 1174903296 228 545259529 0 0 0 64 86 768 3221225472 2321 0 0 184549378 2693293060 2147500048 134218242 0 0 64 268435456 0 0 268435712 4194304 0 10485764 755993088 174 144179211 32 0 0 1073741824 262144 35127296 32 4 655744 402655232 268796240 272 8388608 0 262404 1074004224 65536 2149580800 142951200 16777216 0 536875136 131074 8389632 4096 2097152 0 41945088 1 553648386 65600 2162688 1 671105024 50335744 0 45186 5244945 310378496 4176 80 0 0 1060 0 0 16842752 270541997 25088 8192 2099713 0 0 52498434 101376 24576 16402 2097152 262144 131072 67371776 4260352 0 6291460 207257600 24618 134217730 131080 0 0 1073741888 1048763 65792 3221225472 168099841 65536 0 16779274 8393728 2147500048 100 9
is_linear=0
shrinkage=0.1


Tree=17
num_leaves=31
num_cat=12
split_feature=0 6 4 10 9 6 5 9 11 0 8 8 10 0 6 9 8 11 0 10 10 10 11 10 7 10 6 4 10 10
split_gain=1.7972e+08 1.12351e+08 7.03019e+07 4.59084e+07 4.39366e+07 4.3442e+07 4.09454e+07 3.89608e+07 3.71382e+07 3.36017e+07 3.19146e+07 3.0622e+07 2.43785e+07 2.42658e+07 2.25288e+07 2.08118e+07 2.04515e+07 1.91005e+07 1.89392e+07 1.7985e+07 1.64034e+07 1.58792e+07 1.57771e+07 1.55957e+07 1.54033e+07 1.36368e+07 1.35291e+07 1.27375e+07 1.24016e+07 1.22596e+07
threshold=94.786299765807982 1.9000000000000001 12.276088929219602 0 237.93603767530593 5.1000000000000005 9.5000000000000018 323.23659043593477 1 171.8496240601504 95.500000000000014 56.500000000000007 2 29.122379118528027 4.1000000000000005 460.66400401313996 21.500000000000004 3 21.721576227390184 4 5 6 7 8 8.324561403508774 9 0.90000000000000013 3.5028735632183912 10 11
decision_type=2 2 2 9 2 2 2 2 1 2 2 2 9 2 2 2 2 1 2 9 9 9 1 9 2 9 2 2 9 9
left_child=1 3 4 -1 16 17 7 11 -7 12 14 23 -2 -13 24 20 -3 -4 -18 -9 -14 -20 -10 -5 -6 -12 -22 -8 -16 -21
right_child=9 2 5 6 10 8 27 19 22 -11 25 13 15 -15 28 -17 18 -19 21 29 26 -23 -24 -25 -26 -27 -28 -29 -30 -31
leaf_value=23.882277203677461 10.430181835294354 -11.887114360215467 -3.8000330638401945 -2.4848332159910607 -5.3321923411778194 10.995216304489244 21.603636188378665 -6.8056311795735143 -14.401536840681747 -14.089693716822385 -5.5573161752222227 14.540754073504727 -8.222774613180091 5.9530682093233143 -11.203580499933189 -12.655079032272422 10.180694449187806 10.750833679071766 -5.4238565520491449 -1.3328989852140092 3.6944322988854204 2.1932277786676027 -0.70631647862514002 3.633541083675325 -0.62594819072464292 3.7354331949644486 -3.9864433318752868 9.8442624183832752 -5.5847260879444498 3.9174303222901337
leaf_weight=1164 1012 1118 1011 5361 15760 2823 1230 3472 904 4352 2043 3844 8851 22845 6765 3441 2497 8377 3266 9802 2541 16631 12105 18616 12447 6843 23518 3668 9566 8127
leaf_count=1164 1012 1118 1011 5361 15760 2823 1230 3472 904 4352 2043 3844 8851 22845 6765 3441 2497 8377 3266 9802 2541 16631 12105 18616 12447 6843 23518 3668 9566 8127
internal_value=0.000626371 1.39542 -0.787732 4.24995 -2.2897 3.79415 3.94942 3.34862 0.59819 -5.75163 -3.87504 4.85976 -4.82977 7.18995 -4.96677 -5.2338 1.31254 9.18384 1.97152 -0.228937 -4.5038 0.941295 -1.658 2.26602 -3.25545 1.59687 -3.23624 12.7973 -7.92258 1.04787
internal_weight=224000 180285 102156 78129 76936 25220 76965 72067 15832 43715 53424 50666 39363 26689 44538 38351 23512 9388 22394 21401 34910 19897 13009 23977 28207 8886 26059 4898 16331 17929
internal_count=224000 180285 102156 78129 76936 25220 76965 72067 15832 43715 53424 50666 39363 26689 44538 38351 23512 9388 22394 21401 34910 19897 13009 23977 28207 8886 26059 4898 16331 17929
cat_boundaries=0 15 16 30 31 45 55 69 70 84 94 104 114
cat_threshold=2684370944 33554432 33 536870924 524544 1024 413952 0 12845056 0 64 1623203844 65794 128 16 2 4358656 1572864 131072 2148532352 1051648 8389648 536870912 1048952 0 268436480 8 262144 0 2129920 1 33554824 8196 0 96 4096 0 10485760 1200075268 16580 520 0 0 0 64 36701389 512 0 134217729 0 0 144703488 1636243968 96 9437189 65536 0 1 1073750624 0 0 10553356 2149048320 8240 268435585 131080 0 0 64 1 268435456 0 1074003968 4096 4194304 0 14680068 2891621888 8360 2 147488 0 0 1073741824 6292516 2097152 0 67174400 0 0 3315597320 29795848 165 525344 3320 8960 2147491840 2424865 0 0 23068674 202179072 32 1041 1073808437 2360064 2147491840 1107296528 1024 0 16777226 2148008960 2147491872 805306371
is_linear=0
shrinkage=0.1


Tree=18
num_leaves=31
num_cat=11
split_feature=0 6 5 7 6 11 5 6 0 8 9 9 9 8 6 10 5 10 10 7 10 8 4 11 10 4 10 10 10 10
split_gain=1.53191e+08 9.04018e+07 5.1347e+07 5.09787e+07 5.83695e+07 4.40506e+07 4.34214e+07 3.61979e+07 2.71691e+07 2.60336e+07 2.55336e+07 2.49557e+07 2.43754e+07 1.92008e+07 1.65892e+07 1.56596e+07 1.51998e+07 1.39707e+07 1.38452e+07 1.34997e+07 1.32312e+07 1.27831e+07 1.20823e+07 1.17675e+07 1.16727e+07 1.12122e+07 1.11763e+07 1.11334e+07 1.08915e+07 1.07732e+07
threshold=46.842621259029933 3.9000000000000004 5.5000000000000009 13.377976190476192 1.2250000000000003 0 8.5000000000000018 0.90000000000000013 16.552457813646374 44.500000000000007 332.75772751908602 202.29702456830913 294.72558490751572 25.500000000000004 0.67500000000000016 1 14.500000000000002 2 3 28.033333333333335 4 78.500000000000014 3.6474730737365375 5 6 3.5792464114832541 7 8 9 10
decision_type=2 2 2 2 2 1 2 2 2 2 2 2 2 2 2 9 2 9 9 2 9 2 2 1 9 2 9 9 9 9
left_child=6 2 3 4 14 -3 7 26 13 28 16 -11 -6 -9 23 -14 17 -7 -4 -5 -13 27 -8 -2 -12 -20 -1 -22 -10 -19
right_child=1 5 18 19 12 10 22 8 9 11 24 20 15 -15 -16 -17 -18 29 25 -21 21 -23 -24 -25 -26 -27 -28 -29 -30 -31
leaf_value=0.67460023221827381 6.3950241228812645 6.0206732881404417 -0.58062969973394496 3.0408513121886176 -1.4188042144280455 -7.6370074379257531 24.192595894006917 -4.9966540808535829 -8.7842946751747473 6.9818229013435884 -13.341551594418457 -4.0566535487080637 -8.7461007072244055 11.049457712557855 0.13147014714706881 -3.9744607058805359 11.150227420529498 -4.7012609844256152 19.003785448041594 11.332892141361327 -2.9490966592631285 5.0300909914119138 10.844132410822123 -5.5361801262380261 -7.5007795159729547 7.2166583443753858 10.916363644944797 2.9261006514858683 -1.1123145632537141 0.81727678538767834
leaf_weight=1264 8389 3176 2105 15181 24006 8433 807 874 2447 10111 4449 4134 10779 5081 20582 19180 647 9004 910 2255 6206 8877 4245 917 15575 7130 7182 6694 7536 5824
leaf_count=1264 8389 3176 2105 15181 24006 8433 807 874 2447 10111 4449 4134 10779 5081 20582 19180 647 9004 910 2255 6206 8877 4245 917 15575 7130 7182 6694 7536 5824
internal_value=0.000568988 -1.67979 -0.127208 -0.806558 -1.82956 -5.35243 4.07047 3.32563 2.33869 1.51599 -6.17463 2.7683 -3.79304 8.69441 1.71564 -5.6955 -3.9683 -4.38882 6.65551 4.11326 1.12409 2.10846 12.9764 5.21934 -8.80891 8.54015 9.39734 0.0996119 -3.00276 -2.53465
internal_weight=224000 158542 111434 101289 83853 47108 65458 60406 51960 46005 43932 36022 53965 5955 29888 29959 23908 23261 10145 17436 25911 21777 5052 9306 20024 8040 8446 12900 9983 14828
internal_count=224000 158542 111434 101289 83853 47108 65458 60406 51960 46005 43932 36022 53965 5955 29888 29959 23908 23261 10145 17436 25911 21777 5052 9306 20024 8040 8446 12900 9983 14828
cat_boundaries=0 1 15 25 39 53 54 64 78 92 106 120
cat_threshold=2 2097773 16644 0 134217793 0 0 2164736 1074236932 2147483792 134217864 0 0 0 32 1074792584 66304 2147483648 134217985 0 0 18874368 1275562496 2147500066 134217932 34635908 327680 0 262208 2049 0 1231028230 3293094400 160 1040 8 0 0 64 536871952 2294272 0 8192 4194304 0 27262976 113694208 0 568 1032 0 0 3221225472 1 268436642 25088 8192 49 0 0 18878464 33654784 0 16 2162696 2097684 8192 268435472 65536 16 44040200 205709832 0 1 262152 0 0 64 1048642 16640 2147483648 604244320 65536 0 2348810498 537468928 2147483816 524354 1 0 0 64 269615317 512 139264 2147486688 0 0 2099200 671809536 8224 268435459 0 0 0 32 37749873 0 1073750016 268697616 1048576 0 234881026 587752448 128 524323 8 0 0 32800
is_linear=0
shrinkage=0.1


Tree=19
num_leaves=31
num_cat=8
split_feature=10 10 10 10 9 0 10 8 8 9 8 10 8 9 10 8 2 6 9 2 4 6 10 9 9 0 4 7 6 2
split_gain=1.3939e+08 7.52946e+07 6.49826e+07 6.57136e+07 5.92158e+07 3.80444e+07 3.06146e+07 2.67517e+07 2.31041e+07 2.26746e+07 2.2506e+07 1.72255e+07 1.595e+07 1.55466e+07 1.53279e+07 1.38362e+07 1.28766e+07 1.27709e+07 1.26516e+07 1.2129e+07 1.20652e+07 1.55614e+07 1.15802e+07 9.90374e+06 9.49339e+06 8.89451e+06 8.69844e+06 8.17594e+06 8.4761e+06 8.01765e+06
threshold=0 1 2 3 243.69444565354533 101.23904761904764 4 51.500000000000007 74.500000000000014 226.01113518976607 69.500000000000014 5 80.500000000000014 323.23659043593477 6 20.500000000000004 2.5000000000000004 0.90000000000000013 380.76520933717887 3.5000000000000004 9.5463121783876517 3.4500000000000006 7 286.52204061467421 507.64031292033161 25.44590643274854 2.5298573975044567 14.023809523809526 4.1000000000000005 5.5000000000000009
decision_type=9 9 9 9 2 2 9 2 2 2 2 9 2 2 9 2 2 2 2 2 2 2 9 2 2 2 2 2 2 2
left_child=4 8 12 17 7 10 -5 15 9 -2 16 -12 18 -10 -8 -1 -6 -4 -3 -7 21 -13 -9 -14 -15 -24 -17 28 -18 -11
right_child=1 2 3 6 5 19 14 22 13 29 11 20 23 24 -16 26 27 -19 -20 -21 -22 -23 25 -25 -26 -27 -28 -29 -30 -31
leaf_value=-12.504391245105687 1.8448770019351284 0.63438538879155737 9.7178336332922282 7.0982680319473488 -2.0329942688784266 -4.3637163569780437 10.683976101704198 -0.40640495566842055 6.0758439169813769 -2.8208638652182478 -6.0433188246278089 1.1738528695302861 10.227571656957165 0.60982751965599757 18.765180485190484 6.7342208472922893 -5.7310732538330873 2.1682346066491869 -7.3632274449751707 -9.3923437314018852 5.2029006183602498 -6.0354573468826418 14.796778107357984 2.3854250433042847 -13.322401568384226 5.0485197470664138 -1.615041831033355 -2.3847419492459836 -11.24964492827441 -7.832866572689106
leaf_weight=1088 11116 18280 2642 7442 14972 7520 3996 3870 7482 19102 4467 13011 2584 6968 6112 1382 11845 14750 2218 13244 4785 3889 1032 4274 526 10060 12850 5023 3638 3832
leaf_count=1088 11116 18280 2642 7442 14972 7520 3996 3870 7482 19102 4467 13011 2584 6968 6112 1382 11845 14750 2218 13244 4785 3889 1032 4274 526 10060 12850 5023 3638 3832
internal_value=0.000297578 2.50984 4.81673 7.67432 -2.47913 -3.86914 11.9918 1.3021 -0.421953 -1.86173 -2.62188 -0.396106 1.16525 2.85131 15.5842 -1.63521 -4.26257 3.31318 -0.231002 -7.57115 0.769624 -0.485142 4.30969 5.34024 -0.368068 5.95013 -0.804286 -5.89044 -7.02776 -3.65831
internal_weight=224000 111324 62298 34942 112676 82394 17550 30282 49026 34050 61630 26152 27356 14976 10108 15320 35478 17392 20498 20764 21685 16900 14962 6858 7494 11092 14232 20506 15483 22934
internal_count=224000 111324 62298 34942 112676 82394 17550 30282 49026 34050 61630 26152 27356 14976 10108 15320 35478 17392 20498 20764 21685 16900 14962 6858 7494 11092 14232 20506 15483 22934
cat_boundaries=0 10 20 34 48 62 70 83 92
cat_threshold=1 256 3221225472 1 0 0 262144002 1695530496 2147483808 9961472 1049820 512 0 263536 0 0 4194312 2160082948 6 184549499 1109393410 2172928 40960 436275712 65536 0 3758096388 135266312 8264 640 8 0 0 1073741888 272697376 278540 0 1143480320 4196416 0 2048 33554432 16400 272647172 16385 65536 8388608 32800 8561152 131072 393216 1048576 1053697 16 69632 2097248 769 536875008 132132 268435456 32832 2147483648 0 0 0 0 0 0 153092096 496128 536871168 285741136 1 2151677954 9175696 276826112 268435456 17 262144 0 256 262152 896 0 0 0 0 0 0 127926272 604938240 32
is_linear=0
shrinkage=0.1


Tree=20
num_leaves=31
num_cat=14
split_feature=9 8 8 3 0 5 8 10 10 9 6 9 10 10 4 9 10 10 4 11 4 10 10 6 4 10 10 10 10 10
split_gain=1.14188e+08 9.30083e+07 4.83956e+07 4.00662e+07 3.84163e+07 2.86859e+07 2.79361e+07 2.43357e+07 2.21128e+07 2.13593e+07 2.08735e+07 1.89736e+07 1.85896e+07 1.6878e+07 1.66633e+07 1.578e+07 1.4744e+07 1.41619e+07 1.40766e+07 1.39118e+07 1.78672e+07 1.33297e+07 1.30678e+07 1.28131e+07 1.27453e+07 1.05904e+07 1.04112e+07 1.04079e+07 1.03502e+07 1.03353e+07
threshold=359.23306480493301 65.500000000000014 97.500000000000014 2.5000000000000004 32.934408602150548 1.0000000180025095e-35 44.500000000000007 0 1 456.35224519131083 3.9000000000000004 535.91054318448471 2 3 4.6336309523809538 199.21314550223639 4 5 20.717142857142861 6 7.4096736596736603 7 8 3.2250000000000005 10.190826330532214 9 10 11 12 13
decision_type=2 2 2 2 2 2 2 9 9 2 2 2 9 9 2 2 9 9 2 1 2 9 9 2 2 9 9 9 9 9
left_child=1 3 7 6 26 12 8 -2 -1 16 21 22 -6 -10 -7 28 -9 -17 -12 20 25 -5 -4 -14 -25 -16 -3 -18 -8 -23
right_child=2 4 11 10 5 14 15 9 13 -11 18 -13 23 -15 19 17 27 -19 -20 -21 -22 29 -24 24 -26 -27 -28 -29 -30 -31
leaf_value=15.564768641306182 11.047536205966026 0.80380205565883278 -5.1655316326786318 -5.045307689109535 -2.7864601102498834 13.19474997057501 -1.6606826477163938 -8.320734416733611 -7.4614962401550393 -10.334801744942739 -6.9688803754813442 -11.434519968575376 4.2508285405649806 -0.20616326819100594 17.862521269177901 -3.0627853986551195 -4.921908192327022 3.7845424801630196 2.0125391854573356 10.142971075378817 -3.6531758678696171 -2.1274371435703507 4.7777278548192355 -4.2009308698954104 3.8437921972332569 4.5239428515945379 11.28899848305465 -0.92784408479125124 10.000229150183159 1.6478388909652573
leaf_weight=807 886 1075 1550 7253 7175 3313 896 8322 3656 7910 12432 958 20210 25590 671 3752 18856 15380 2030 3905 2773 14604 8738 4273 3653 4997 8775 10000 5176 14384
leaf_count=807 886 1075 1550 7253 7175 3313 896 8322 3656 7910 12432 958 20210 25590 671 3752 18856 15380 2030 3905 2773 14604 8738 4273 3653 4997 8775 10000 5176 14384
internal_value=0.000402186 1.32288 -3.85424 -0.46625 4.43988 3.33505 1.39644 -5.29261 -0.66267 -5.61491 -2.49624 2.02588 1.75524 -1.11538 6.8975 3.85171 -4.61221 2.44208 -5.70818 5.20766 2.92448 -1.21452 3.27929 2.91338 -0.493213 6.14251 10.157 -3.53857 8.29325 -0.254203
internal_weight=224000 166780 57220 105960 60820 50970 55257 45974 30053 45088 50703 11246 35311 29246 15659 25204 37178 19132 14462 12346 8441 36241 10288 28136 7926 5668 9850 28856 6072 28988
internal_count=224000 166780 57220 105960 60820 50970 55257 45974 30053 45088 50703 11246 35311 29246 15659 25204 37178 19132 14462 12346 8441 36241 10288 28136 7926 5668 9850 28856 6072 28988
cat_boundaries=0 14 28 39 53 63 77 78 88 99 113 127 141 155 169
cat_threshold=671220224 8 262144 2147582082 5244928 8388608 268435536 273 0 17412 17665 268435456 64 16809984 262912 51904532 0 67108864 1049728 8388608 2147549264 288 1 1024 263488 786440 65536 2147483648 536871020 131072 32768 1073743425 0 0 2904555528 101116416 8192 545259520 1024 404816048 0 262144 134221952 4196352 64 10485760 138481664 8354 142606347 8 0 0 1073741856 1073743072 73748 8192 134217777 524288 0 27328512 1107626500 130 8912920 33555328 82432 0 67371072 0 16 2097152 1142923272 16480 135790592 1280 0 64 32 1 34603010 520 0 262400 262144 0 10487808 2710536192 24616 42467849 1074790556 2097152 8192 65536 1 0 1151338504 92766208 8352 1161 16388 41320 278528 0 1074798592 131088 8388608 33558528 50399232 130 134234120 0 536870912 0 32 4261888 0 0 33628160 144 0 1306591232 2281734688 130 524960 1024 0 0 3221225472 2097155 768 3221225472 35653952 0 0 167776258 2216346624 2147483652 671088834 0 0 0 64 1073744904 17041408 0 268435456 1115136 0 20973568 3221397504 8198 268977192 262152 0 0 32832 131141 2179072 3221225472 33557008 2112 0 33554442 71312896 2147483776 269484034 16384 0 0 1073774624
is_linear=0
shrinkage=0.1


Tree=21
num_leaves=31
num_cat=14
split_feature=9 6 8 5 11 7 6 8 10 0 10 4 6 10 10 4 10 10 10 3 11 10 10 10 10 4 5 10 8 2
split_gain=1.01459e+08 6.05119e+07 5.42517e+07 4.13491e+07 3.9434e+07 3.34249e+07 2.75212e+07 2.39384e+07 2.36035e+07 2.14117e+07 1.9271e+07 1.87627e+07 1.87317e+07 1.83705e+07 1.70331e+07 1.55685e+07 1.54506e+07 1.4207e+07 1.41585e+07 1.28912e+07 1.28593e+07 1.31446e+07 1.09927e+07 1.08668e+07 1.07272e+07 1.05356e+07 1.01932e+07 1.00914e+07 9.9042e+06 9.8882e+06
threshold=259.35402125368245 3.2250000000000005 55.500000000000007 1.0000000180025095e-35 0 12.861904761904764 0.67500000000000016 94.500000000000014 1 18.209914320685435 2 10.100724637681161 6.2250000000000005 3 4 3.3506756756756761 5 6 7 4.5000000000000009 8 9 10 11 12 3.6474730737365375 16.500000000000004 13 24.500000000000004 4.5000000000000009
decision_type=2 2 2 2 1 2 2 2 9 2 9 2 2 9 9 2 9 9 9 2 1 9 9 9 9 2 2 9 2 2
left_child=2 3 9 5 -3 6 -2 14 -6 28 -8 23 -13 -11 -4 -5 -12 -15 -16 -20 21 -17 -19 -10 -9 -26 29 -14 -1 -25
right_child=1 4 7 15 8 -7 10 24 11 13 16 12 27 17 18 20 -18 22 19 -21 -22 -23 -24 26 25 -27 -28 -29 -30 -31
leaf_value=-2.3769310414073845 3.8998254224044278 6.2427523132055729 17.053186287914667 14.769290935624781 13.343514924370261 4.0612091986986316 -5.9051354700308387 1.589492064527797 -12.242871809440302 16.59291115826905 13.051354251774683 0.32567591862983708 -10.280646994811409 -4.5542123167872068 -1.297170107070855 -4.2423859605828511 -1.8341998238933663 -1.3528649328943887 6.4586742822199215 2.0105225864472707 11.424619935433197 4.3043288445144992 2.295490442353767 -4.9324700512308439 21.496482625267618 10.611937822783194 3.7939909658782405 -3.7858241810464621 9.8847544589114502 -9.0935401558961448
leaf_weight=831 7211 3310 1020 1448 681 11094 13774 996 3455 623 700 9286 3398 7340 4400 2286 39654 18184 17562 10358 1887 8347 15114 13832 1144 3994 973 8193 3178 9727
leaf_count=831 7211 3310 1020 1448 681 11094 13774 996 3455 623 700 9286 3398 7340 4400 2286 39654 18184 17562 10358 1887 8347 15114 13832 1144 3994 973 8193 3178 9727
internal_value=0.000538822 -1.65969 2.72872 -0.0292819 -4.32489 -0.989948 -1.90352 5.4383 -5.0309 0.366056 -2.67665 -5.28862 -3.0209 -0.311848 4.38202 4.95239 -1.57282 -0.574948 3.97562 4.80674 3.81701 2.46692 0.30332 -6.98213 11.1795 13.0101 -6.23369 -5.70197 7.34311 -6.65049
internal_weight=224000 139256 84744 86401 52855 72433 61339 39474 49545 45270 54128 48864 20877 41261 33340 13968 40354 40638 32320 27920 12520 10633 33298 27987 6134 5138 24532 11591 4009 23559
internal_count=224000 139256 84744 86401 52855 72433 61339 39474 49545 45270 54128 48864 20877 41261 33340 13968 40354 40638 32320 27920 12520 10633 33298 27987 6134 5138 24532 11591 4009 23559
cat_boundaries=0 1 15 26 40 55 69 79 93 94 108 122 132 146 158
cat_threshold=2 671122176 35128336 131072 2 132608 0 256 321 0 536870912 393472 262144 32960 2195520 181 73984 0 134217808 4194304 0 10485760 117916164 177 545259520 4 0 35128320 32 32768 655632 134219776 268697936 272 8650753 0 260 1074003968 65920 2147483648 277110816 285212736 0 4232 8194 33555456 268439552 1048576 5 33556480 0 541073664 65600 0 1 537133056 319819776 0 2684359172 2448 33562624 4432 64 12582912 0 262144 17039360 65536 16842752 268435458 2097160 8192 2147549218 4194304 0 547356676 1812692992 8230 537919562 536870976 132096 1 512 0 0 94371840 3289309248 34 16777292 1096 262144 0 1073741824 1 1049600 2097664 8192 64 0 0 1323302920 2153506304 0 524336 0 0 64 64 513 256 3221225472 268447632 0 0 1077936136 2172661248 2147500032 33554449 9 0 0 32 1073750192 16384 0 134283265 0 0 18878464 262144 8193 84 4194312 2359296 0 622864 65552 0 186648576 2764210176 4 624 17408 0 0 1073741824 268436480 2560 0 302261521 64 0 186646536 42047488 32 268436640 0 268435456
is_linear=0
shrinkage=0.1


Tree=22
num_leaves=31
num_cat=13
split_feature=0 6 7 6 4 5 8 9 9 10 8 8 2 9 10 11 8 11 11 10 10 10 4 10 0 10 10 6 10 10
split_gain=8.85504e+07 6.21105e+07 3.9236e+07 4.36816e+07 3.63734e+07 3.35798e+07 2.53256e+07 2.52813e+07 2.32666e+07 1.96362e+07 1.80137e+07 1.57464e+07 1.39357e+07 1.39283e+07 1.35954e+07 1.31744e+07 1.27997e+07 1.21515e+07 1.20493e+07 1.18228e+07 1.16379e+07 1.15076e+07 1.13067e+07 1.10276e+07 1.08942e+07 9.83848e+06 9.63721e+06 8.89176e+06 8.8247e+06 8.70881e+06
threshold=38.572948328267479 4.1000000000000005 18.696153846153852 0.90000000000000013 16.646110056926002 8.5000000000000018 97.500000000000014 379.4345079947214 202.29702456830913 0 22.500000000000004 66.500000000000014 2.5000000000000004 373.99911277287435 1 2 44.500000000000007 3 4 5 6 7 5.5841194968553465 8 16.552457813646374 9 10 8.4500000000000011 11 12
decision_type=2 2 2 2 2 2 2 2 2 9 2 2 2 2 9 1 2 1 1 9 9 9 2 9 2 9 9 2 9 9
left_child=6 2 3 15 13 7 8 9 10 -5 -1 12 21 23 -12 20 -10 -6 -4 -13 -2 -11 -22 -3 -16 -8 -18 -19 -14 -25
right_child=1 4 18 5 17 -7 25 -9 16 11 14 19 28 -15 24 -17 26 27 -20 -21 22 -23 -24 29 -26 -27 -28 -29 -30 -31
leaf_value=-6.4785088547744625 13.758369231330025 -7.7996070097851984 0.5941475979270483 15.903196358251131 8.0712245645229714 5.7164942307850186 21.46306712801557 -4.9345242526403261 -3.3438361100301393 -4.7525791174473317 -0.95573809436935786 -3.8502411292538294 -7.0251866908708083 -8.2679773273038109 14.774983724019538 -2.7809095975260889 -3.4379430030189582 3.2752802660615252 8.1761664093342077 2.0278118692809484 4.9977864712515219 1.2754421571182792 -3.403417293658987 -4.6683627810813739 6.8730903236950001 8.4741366281202435 3.2577137455854164 -3.3963196427185816 -2.5940656140954599 -0.4760831934311151
leaf_weight=1063 1340 6365 2912 682 2106 6525 654 19227 5205 3984 1860 4101 5545 11811 2110 2615 2501 3573 7480 20423 14760 15283 1797 12768 10079 5683 15042 4531 23863 8112
leaf_count=1063 1340 6365 2912 682 2106 6525 654 19227 5205 3984 1860 4101 5545 11811 2110 2615 2501 3573 7480 20423 14760 15283 1797 12768 10079 5683 15042 4531 23863 8112
internal_value=0.000586435 -0.985169 0.156633 -0.353252 -4.01053 -1.21842 4.01085 -1.70441 3.03151 -0.863802 6.073 -1.02205 -2.06327 -5.3998 7.0227 3.84912 1.01098 1.30381 6.05157 1.04412 4.81786 0.0271727 4.0835 -4.15642 8.23421 9.86188 2.30305 -0.454855 -3.43284 -3.04065
internal_weight=224000 179803 130537 120145 49266 99633 44197 93108 37860 73881 15112 73199 48675 39056 14049 20512 22748 10210 10392 24524 17897 19267 16557 27245 12189 6337 17543 8104 29408 20880
internal_count=224000 179803 130537 120145 49266 99633 44197 93108 37860 73881 15112 73199 48675 39056 14049 20512 22748 10210 10392 24524 17897 19267 16557 27245 12189 6337 17543 8104 29408 20880
cat_boundaries=0 14 27 28 29 30 44 58 72 82 94 108 122 136
cat_threshold=262144 51909632 32 12 274 0 147792 256 4194560 0 0 558379016 130 2097152 134217736 263184 262144 264704 4194432 0 1075838976 3227025417 40 268435681 49160 0 128 1 2 1 33587244 131072 0 65634 1024 0 2292187136 17295908 0 536870912 1032 0 0 1073741824 49760 17105920 1 105918465 524288 8389632 6216 0 0 17408 262145 0 0 2147483648 2097152 520 262144 71369730 262144 16 14680064 1745687553 228 8389186 0 0 0 64 1107296400 65540 8192 671154193 1048576 0 119537664 201590784 2147491874 152043696 49251 0 0 2148532290 262144 8388608 2147483904 33619968 0 268435456 8 276824068 541065414 2097664 0 100728832 66560 0 2350907392 612422144 16416 4105 1032 0 0 2147483648 1109394961 16384 0 33620288 0 0 35653632 13041664 16395 135266329 4 0 0 1073741856 1051721 768 3221225472 268697856 0 0 2058 1115940352 16 1031 0 0 0 64
is_linear=0
shrinkage=0.1


Tree=23
num_leaves=31
num_cat=10
split_feature=0 10 10 10 10 10 0 10 8 10 2 10 6 9 11 9 4 8 3 8 9 10 6 6 5 4 6 0 6 6
split_gain=7.8569e+07 5.76783e+07 3.79036e+07 2.83355e+07 3.61927e+07 2.10981e+07 2.07362e+07 1.85993e+07 1.70616e+07 1.49163e+07 1.37622e+07 1.23086e+07 1.21075e+07 1.19744e+07 1.16244e+07 1.15639e+07 1.18919e+07 1.08845e+07 1.15147e+07 9.61401e+06 9.78998e+06 9.17775e+06 8.48278e+06 7.61101e+06 7.29018e+06 7.23083e+06 7.11393e+06 7.03338e+06 6.75556e+06 6.75452e+06
threshold=94.786299765807982 0 1 2 3 4 171.8496240601504 5 69.500000000000014 6 4.5000000000000009 7 2.2250000000000005 373.99911277287435 8 427.50666893696945 9.765331664580728 21.500000000000004 3.5000000000000004 54.500000000000007 295.78620499616903 9 2.6333333333333337 1.1000000000000003 1.0000000180025095e-35 6.8344748858447497 5.9000000000000012 16.552457813646374 5.1000000000000005 0.90000000000000013
decision_type=2 9 9 9 9 9 2 9 2 9 2 9 2 2 1 2 2 2 2 2 2 9 2 2 2 2 2 2 2 2
left_child=1 7 12 23 29 -6 9 -1 13 -2 21 -7 -3 17 -14 16 22 -9 27 -12 -21 -11 -10 -4 -22 -16 -27 -19 -18 -5
right_child=6 2 3 4 5 11 -8 8 15 10 19 -13 14 -15 25 -17 28 18 -20 20 24 -23 -24 -25 -26 26 -28 -29 -30 -31
leaf_value=-6.0178158541585942 7.2593631313112041 1.9489173423794579 4.9638408473368463 7.6186201378304679 5.3834550386453301 8.104248057255818 -10.352793272198582 -11.118456644113962 2.3876456274790789 -5.8745337413732051 -8.8305286595571904 15.540803670777857 -4.3811866168428377 -5.6690994275531246 -4.4103636856976474 -3.6838754260625466 9.6383595476213273 6.7703421198684186 -3.2674965313407789 1.1150529778137455 -7.0840643541032442 -0.5608428530862295 -2.199181265244885 0.32938289586011288 -0.57794793085618457 4.0215808573610499 -1.2895426964402952 -0.050178817279917756 2.6738879870487278 1.9615020024071872
leaf_weight=6815 1340 23639 4601 2487 7355 3820 4352 1054 13144 4073 5740 5640 7894 6629 2416 3906 2850 1608 12995 2980 6965 15977 5816 15419 2288 5702 4522 25304 2724 13945
leaf_count=6815 1340 23639 4601 2487 7355 3820 4352 1054 13144 4073 5740 5640 7894 6629 2416 3906 2850 1608 12995 2980 6965 15977 5816 15419 2288 5702 4522 25304 2724 13945
internal_value=0.000664394 0.92289 2.572 4.36796 6.15794 9.42015 -3.80268 -1.01694 -0.56795 -3.0785 -3.44383 12.5496 0.405805 -1.72607 -1.37045 1.36978 2.17436 -1.08794 -0.823017 -5.45414 -3.86986 -1.64349 0.980632 1.39378 -5.47529 0.509834 1.67251 0.357349 6.23484 2.816
internal_weight=224000 180285 97440 53267 33247 16815 43715 82845 76030 39363 38023 9460 44173 47590 20534 28440 24534 40961 39907 17973 12233 20050 18960 20020 9253 12640 10224 26912 5574 16432
internal_count=224000 180285 97440 53267 33247 16815 43715 82845 76030 39363 38023 9460 44173 47590 20534 28440 24534 40961 39907 17973 12233 20050 18960 20020 9253 12640 10224 26912 5574 16432
cat_boundaries=0 10 24 38 52 64 73 87 101 102 112
cat_threshold=0 256 2147483648 262400 0 0 765460482 1695526400 2147483808 50855946 1049609 512 1073741824 268437105 65536 0 1111490572 2161131528 4 143654960 0 0 0 1073741824 39846102 2164736 8192 1107363840 3072 0 2147483648 134221824 24586 705 16392 0 0 64 1073742336 286732 262144 203956224 4198465 0 2048 100 64 272647172 1 65536 8388608 32800 277063968 659456 163840 1048576 1572864 16 69632 35651584 785 536870912 132132 268435456 0 0 0 0 0 0 2097152 425984 32 4358656 1572864 131072 1074790528 1051648 8389648 536872960 1048952 0 268436480 8 262144 0 1075871808 536870912 286262336 0 2151682178 262800 276826112 268435456 272 0 6144 262400 262144 33728 2147483648 1 270541985 344584 0 201328640 0 0 10485760 1086521344 32 1573463
is_linear=0
shrinkage=0.1


Tree=24
num_leaves=31
num_cat=12
split_feature=9 8 8 9 8 0 2 3 10 9 10 10 5 10 10 10 4 10 10 10 7 3 7 8 10 8 6 10 10 7
split_gain=6.60835e+07 4.39248e+07 4.3561e+07 3.04247e+07 2.39013e+07 2.23331e+07 2.09516e+07 1.86559e+07 1.85726e+07 1.81403e+07 1.70147e+07 1.44576e+07 1.42665e+07 1.41665e+07 1.34297e+07 1.33522e+07 1.38633e+07 1.29148e+07 1.26988e+07 1.22966e+07 1.17064e+07 1.13087e+07 1.08386e+07 1.03934e+07 9.95074e+06 9.91835e+06 9.61548e+06 9.53609e+06 9.2967e+06 9.01994e+06
threshold=268.89219493156929 95.500000000000014 48.500000000000007 402.72519744061367 54.500000000000007 21.721576227390184 5.5000000000000009 2.5000000000000004 0 445.08446136604442 1 2 10.500000000000002 3 4 5 4.2689437428243409 6 7 8 18.033333333333335 2.5000000000000004 17.408333333333335 24.500000000000004 9 32.500000000000007 1.1000000000000003 10 11 10.605555555555556
decision_type=2 2 2 2 2 2 2 2 9 2 9 9 2 9 9 9 2 9 9 9 2 2 2 2 9 2 2 9 9 2
left_child=2 3 10 4 7 -4 11 19 -7 14 -1 -6 15 -12 -3 -10 -17 -5 -13 -2 -20 23 -18 -15 -16 -19 -8 -21 -27 -28
right_child=1 9 5 17 6 8 26 -9 12 -11 13 18 -14 21 24 16 22 25 20 27 -22 -23 -24 -25 -26 28 29 -29 -30 -31
leaf_value=-5.2552436690390438 -7.2071509647972922 -2.8399319980303908 10.773556444886809 -9.3999361604873695 -3.8847840016652229 18.220914646024365 2.2876405014333399 -5.9417388692481632 -1.5593864238554584 -2.8530791073746435 13.285466578247402 13.691743508511298 9.3753430769323369 -3.9866214305513163 14.641224655138425 6.6056123780190283 1.199081540985877 10.824536348641191 0.97582412179828593 6.6011761813203753 6.5814414630818323 -2.6722905989734138 5.5732933278929657 2.4473945907448633 4.846352979882683 3.598043900963932 -6.1503774779715457 -1.1482748446887656 -5.1634745375408428 -0.99989551344809868
leaf_weight=6534 3096 2140 4244 6176 4550 804 2946 15731 6783 4274 816 915 3272 2974 1132 9382 24113 438 25596 1749 4360 10254 7404 16116 12148 1318 8139 16322 14434 5840
leaf_count=6534 3096 2140 4244 6176 4550 804 2946 15731 6783 4274 816 915 3272 2974 1132 9382 24113 438 25596 1749 4360 10254 7404 16116 12148 1318 8139 16322 14434 5840
internal_value=0.000704365 -1.44245 2.04494 -2.21075 -1.38421 3.79969 -0.010228 -3.33343 3.22785 2.91166 -0.633133 1.3727 2.98711 0.369842 4.50949 2.54937 3.23039 -5.5088 2.14815 -1.39498 1.79111 0.0062796 2.22668 1.44505 5.69167 -4.01617 -2.90446 -0.395009 -4.43138 -3.99866
internal_weight=224000 131304 92696 111610 89244 56002 52346 36898 51758 19694 36694 35421 50954 30160 15420 47682 40899 22366 30871 21167 29956 29344 31517 19090 13280 16190 16925 18071 15752 13979
internal_count=224000 131304 92696 111610 89244 56002 52346 36898 51758 19694 36694 35421 50954 30160 15420 47682 40899 22366 30871 21167 29956 29344 31517 19090 13280 16190 16925 18071 15752 13979
cat_boundaries=0 15 29 42 56 70 84 94 109 123 137 151 165
cat_threshold=402931712 40 32 135304 393218 1024 131072 0 262161 4196352 0 553660672 66050 2097280 16 268435466 520 8192 2147496448 0 0 35651588 755696640 16422 8388616 163840 0 0 1073741856 304122368 520 0 134217793 263168 0 203423744 1149604356 64 33555072 16384 0 64 4456448 35127296 32768 0 1168 2048 268697920 368 1 1024 1348 1073742080 98688 2147483648 4195340 2359296 0 67174912 0 0 81790984 219459584 8323 524296 0 0 0 1075838976 570425344 4 1 1342177312 0 2048 94388226 3825647680 40 8912960 40 0 32768 1073741824 1074856995 24576 8192 134219825 0 0 559943680 1107756032 8352 536870984 1610678272 51384336 1 536915970 1179664 0 69632 32 256 8388616 262400 262144 32768 16777216 16 6291600 8192 262144 167772736 4392960 0 2162688 131072 161 404242455 0 0 0 32 35010 1040 0 542113888 393728 8388688 69632 32 16384 65 264 276824064 65600 32768 32770 16779272 139264 2148016128 1537 8388608 3825211648 2818572300 0 536871040 1028 0 0 64 35815936 262144 393216 3222340738 1089 0 2147483648 69206033 0 268435457 1285 0 64 1073741888
is_linear=0
shrinkage=0.1


Tree=25
num_leaves=31
num_cat=16
split_feature=6 4 0 10 10 6 7 5 6 11 6 11 10 5 0 7 8 2 9 10 10 10 10 10 10 10 11 10 10 10
split_gain=6.09378e+07 4.21827e+07 3.61339e+07 2.07694e+07 1.99214e+07 1.85586e+07 2.29026e+07 1.71339e+07 1.66378e+07 1.6125e+07 1.68546e+07 1.74779e+07 1.5181e+07 1.34266e+07 1.32588e+07 1.27111e+07 1.19284e+07 1.10443e+07 1.01865e+07 9.34957e+06 9.33435e+06 9.11509e+06 8.86416e+06 8.4406e+06 8.40877e+06 8.33095e+06 8.21745e+06 8.16945e+06 7.7734e+06 7.6491e+06
threshold=2.6333333333333337 14.25198412698413 38.215838509316775 0 1 0.67500000000000016 13.303846153846157 8.5000000000000018 5.2250000000000005 2 5.1000000000000005 3 4 6.5000000000000009 109.10435571687842 14.207142857142857 86.500000000000014 2.5000000000000004 197.71922333459557 5 6 7 8 9 10 11 12 13 14 15
decision_type=2 2 2 9 9 2 2 2 2 1 2 1 9 2 2 2 2 2 2 9 9 9 9 9 9 9 1 9 9 9
left_child=2 4 12 -4 -2 22 7 14 13 -3 -11 24 -1 15 20 17 18 25 27 -10 -7 -16 -5 -17 -12 -6 -8 -14 -15 -22
right_child=1 9 3 5 8 6 26 -9 19 10 11 -13 16 28 21 23 -18 -19 -20 -21 29 -23 -24 -25 -26 -27 -28 -29 -30 -31
leaf_value=16.782979338307605 11.644081572462683 -11.116753854541534 16.841049692401992 -2.6698359608870814 -6.0534740926730777 -3.8427704720694922 0.80313823326906264 4.9251077422632941 -7.8075356579537347 7.5908349651286038 -5.3069113941831754 7.7311297105438399 -0.99692375176677706 -3.9096082962741168 -8.7279795350770595 6.3280708738032683 8.3571494398686408 -4.7055748208961452 1.2260128632061971 -3.8076080056991914 -1.6233874536095687 -2.2353224840046084 5.0798366054843216 -0.89476862606338237 0.77277859136977389 0.14556595785674031 5.6678046423621353 7.2704322520724887 6.4530307404732543 0.87086928630511551
leaf_weight=997 910 891 769 1704 2706 7901 6037 4897 9116 5121 3013 3050 1456 981 3515 2114 5534 23242 11779 16505 20804 5655 10904 6785 9188 10749 8174 6762 2711 30030
leaf_count=997 910 891 769 1704 2706 7901 6037 4897 9116 5121 3013 3050 1456 981 3515 2114 5534 23242 11779 16505 20804 5655 10904 6785 9188 10749 8174 6762 2711 30030
internal_value=0.000805474 -1.88506 1.44334 0.575976 -2.98894 0.448686 -0.0708196 -0.787608 -3.16784 2.05111 2.62703 0.960276 4.72572 -2.09375 -1.19958 -2.56341 4.24664 -3.38562 3.11122 -5.23532 -0.647458 -4.73601 4.03436 0.827157 -0.732299 -1.10554 3.60124 5.81332 3.70647 -0.150033
internal_weight=224000 97082 126918 100390 75819 99621 87013 72802 74909 21263 20372 15251 26528 49288 67905 45596 25531 36697 19997 25621 58735 9170 12608 8899 12201 13455 14211 8218 3692 50834
internal_count=224000 97082 126918 100390 75819 99621 87013 72802 74909 21263 20372 15251 26528 49288 67905 45596 25531 36697 19997 25621 58735 9170 12608 8899 12201 13455 14211 8218 3692 50834
cat_boundaries=0 13 27 28 29 44 54 68 78 92 106 120 131 132 146 156 171
cat_threshold=2818588672 33554432 33 4236 8397056 0 409600 256 12583168 0 65536 557850626 65538 262400 35128336 0 0 131713 41943040 268435792 273 0 0 295168 1611137280 98304 327680 1 4 33603616 131072 0 134217735 786688 0 268439808 33554432 8209 536870912 64 1354760196 512 128 16 1075838992 8704 3221266432 738533409 65536 0 622858242 167772672 36 150994976 32816 0 0 64 4456448 0 278921216 253227012 16560 545263616 0 0 0 1073741920 2098429 8192 3221225472 2304 65536 0 69206020 1711734785 32 523 37748866 393216 131072 1073741824 1050624 0 48234496 68418048 4 268435488 264 0 0 64 1073784384 272384 3221364736 2359296 65536 0 3300917248 575673352 2 0 4 0 0 32768 303038592 65536 0 436471121 64 16 228589572 75726848 0 536870948 0 268435456 0 64 268435682 262144 0 66816 0 0 10487816 2189775880 128 585 13 1 1074790408 262160 262144 1078044672 4259840 33554432 1080033284 2286428160 0 160 131072 0 0 64 1122340 65536 0 33629184 64 0 1142947844 560136 4 134743586 1049604 768 0 3346 0 0 134220036 3234334216 2147483716 1572882 36 0 0 0 1
is_linear=0
shrinkage=0.1


Tree=26
num_leaves=31
num_cat=14
split_feature=9 8 9 8 5 2 10 6 7 10 0 10 10 6 10 3 6 4 10 10 10 10 10 4 10 8 9 10 10 10
split_gain=5.17047e+07 3.9826e+07 3.55732e+07 2.60225e+07 2.6016e+07 2.4486e+07 2.00401e+07 1.89303e+07 2.21977e+07 1.71089e+07 1.41933e+07 1.30272e+07 1.29457e+07 1.21067e+07 1.13906e+07 1.06627e+07 1.04412e+07 1.03683e+07 1.0343e+07 1.00764e+07 1.00324e+07 9.87646e+06 9.70333e+06 9.23978e+06 8.46402e+06 8.30543e+06 8.2059e+06 8.05142e+06 7.96148e+06 7.69152e+06
threshold=228.44196024407208 57.500000000000007 460.66400401313996 42.500000000000007 13.500000000000002 2.5000000000000004 0 0.90000000000000013 15.97058823529412 1 21.721576227390184 2 3 4.1000000000000005 4 1.5000000000000002 5.2250000000000005 9.5463121783876517 5 6 7 8 9 3.316228070175439 10 76.500000000000014 559.29266441003233 11 12 13
decision_type=2 2 2 2 2 2 9 2 2 9 2 9 9 2 9 2 2 2 9 9 9 9 9 2 9 2 2 9 9 9
left_child=3 5 4 12 6 11 -3 27 13 -5 -11 -2 -1 17 -7 24 -10 18 -9 -14 -6 -12 -16 -22 -13 -23 -4 -8 -27 -24
right_child=1 2 26 9 20 14 7 8 16 10 21 15 19 -15 22 -17 -18 -19 -20 -21 23 25 29 -25 -26 28 -28 -29 -30 -31
leaf_value=-7.3372622950684079 6.890675589369005 16.697160759942218 -4.3227558352329529 15.901906895616746 -1.431174056155438 -8.788117039503641 -1.8035762611825608 7.5060261427075687 5.7596398504104931 9.3457934396472098 -1.0087906180983914 -5.1196588233162581 11.750888427792383 -3.7874201667290834 -5.3594773581743933 -2.803848966501524 0.15436072758478336 4.5448131962018108 -1.1191197935026664 -0.15127151430240296 20.439926753519472 2.6491515174891722 -3.798772015087434 7.5444903860510513 2.3486995756720455 -0.0093425230538881961 -12.328225756587496 5.5065364012520881 7.8589970666506508 1.2239327207507975
leaf_weight=2488 2065 747 6942 1138 1090 5501 1814 1433 7833 3792 5454 1804 736 13060 17420 18135 5772 3986 38203 15294 637 23801 7310 4350 9291 1605 1570 8881 6626 5222
leaf_count=2488 2065 747 6942 1138 1090 5501 1814 1433 7833 3792 5454 1804 736 13060 17420 18135 5772 3986 38203 15294 637 23801 7310 4350 9291 1605 1570 8881 6626 5222
